1182 200
EzMlo8kr5H4 0.11166668 0.12246383 -0.046709508 0.019813564 0.120989956 0.16438411 0.110900715 0.1341965 0.10888825 -0.14322048 -0.17500769 0.029501064 0.20092195 -0.038900703 0.03289124 -0.13127707 -0.08930276 -0.17241542 -0.08398637 0.0076885046 0.05904375 0.07641978 -0.116445445 -0.14657024 0.06676504 -0.093673445 -0.055159945 -0.018840194 0.2116824 0.08795038 -0.13027357 -0.025547368 0.05039096 -0.1430421 -0.015648933 -0.06282905 -0.048099767 -0.06421473 -0.04837129 -0.06187001 -0.10100221 -0.012292585 0.127416 -0.25490278 -0.10881143 -0.06649167 -0.17831047 -0.04762572 0.10606865 0.1084453 0.10497953 -0.07465942 -0.061764408 0.20685522 -0.20197028 -0.13924482 0.22623506 0.12072931 -0.114384286 -0.07136497 -0.15075365 0.043271244 -0.01972012 -0.25861567 -0.09387461 0.20432316 -0.1575071 0.17160574 -0.031831685 0.006920521 0.17082585 0.1866374 0.3011256 -0.26896495 0.0102747325 -0.18187347 -0.18512245 0.1663327 0.08305812 0.08894156 0.17881663 -0.11295397 -0.20781039 -0.16621856 0.0009310202 -0.16907018 -0.10895173 -0.04415081 0.1541695 0.017259268 -0.033813715 -0.026376948 -0.38398015 0.07668461 0.07116199 0.101776496 -0.0043856255 -0.20705466 -0.06802684 0.040287144 0.16014032 -0.1243566 0.1682982 0.09760256 0.09771364 0.1445568 -0.052187644 -0.033340972 -0.20796767 0.01561591 -0.051459275 0.11248183 -0.15388478 0.15780129 -0.028910948 -0.04456159 0.14761107 -0.09963226 -0.13070923 0.16856773 0.08736272 0.055625055 0.05157987 0.13713306 0.0074999635 -0.05669581 0.15047923 -0.004891079 -0.09740862 -0.061829455 -0.09135757 0.22220682 -0.061011303 -0.09870085 -0.10864383 0.14388704 0.0068590846 0.14906062 -0.055243775 -0.12327191 -0.023328157 0.07777978 -0.07863179 -0.061278727 0.22203809 -0.17197174 0.018169919 0.020183783 -0.1484612 -0.00026514882 -0.06455441 0.053443838 0.06418744 0.064647004 0.23064567 0.15656221 -0.17597729 0.0017343746 -0.10836185 0.075171985 -0.01771035 0.24788408 -0.031155188 0.014704301 0.02487427 -0.0074740383 0.094351426 -0.022476295 0.06714981 0.18417692 0.12888937 -0.035826508 0.054457795 -0.26777208 -0.04938998 0.042976353 -0.132315 -0.077766776 -0.055396628 0.047453124 -0.1188367 -0.05054979 -0.051561203 0.10914295 -0.037708316 0.22361496 -0.095738016 0.024529863 -0.0858205 -0.092407905 -0.056760132 -0.027219256 0.14113127 -0.032179035 0.05481859 -0.07615561 -0.02627228 0.07015052 -0.019308262 0.18979259
bMSmTRpFxAT -0.01317939 0.24591333 -0.09980516 -0.116743036 0.07424229 0.09960412 0.123624526 0.20635892 0.1142483 -0.282726 -0.1920105 0.06426961 0.14056766 -0.100793116 0.097962506 -0.19320817 -0.007923728 -0.012865866 -0.2672723 -0.04489214 0.09634573 0.17685662 -0.11296679 -0.31434345 0.066751346 -0.014995685 -0.1791411 0.047853053 0.3151134 0.06862448 -0.056719843 -0.16330698 -0.07911109 0.015333105 0.023892825 -0.010673364 -0.063244835 -0.09549718 -0.06889825 0.039451886 -0.06556404 0.084920704 0.12596083 -0.20432746 -0.08976665 0.06627582 0.006151384 -0.012369446 0.13531634 -0.0057391715 -0.006652003 -0.05340755 -0.16578098 0.049083807 -0.10642263 -0.16031358 0.253703 -0.023645872 -0.122344464 -0.02744111 -0.050156303 0.020068483 -0.16918395 -0.11965401 -0.23320976 0.009207604 0.051708296 0.07738947 0.042216424 -0.073354624 0.2567383 0.05168331 0.24342537 -0.1281799 -0.041282102 -0.12692255 -0.103175335 0.2422893 0.05272763 0.08850977 0.16264357 0.12566015 -0.24336594 -0.31884763 -0.045610752 -0.17017858 -0.09612306 -0.12848513 0.026418302 -0.072100736 -0.020909075 -0.058767878 -0.4999036 0.12350034 0.04015784 -0.008022929 -0.017468344 -0.120966 -0.15708219 -0.107697405 0.31839848 -0.20457044 0.22685564 0.03882347 0.06597435 0.104542896 0.07665659 0.08530172 -0.19497271 0.06836503 -0.08179051 0.056791674 -0.2030411 0.10576553 0.018382955 0.079827406 0.19725525 -0.15512447 -0.05113581 -0.015224541 0.12765782 0.11030983 0.12653708 0.1481346 -0.058332358 0.010459611 0.27786055 0.056207485 -0.15519683 0.07541897 -0.16089459 0.16544214 -0.13964392 -0.13444479 -0.08769346 0.012213328 -0.15068044 -0.005834872 -0.09355416 -0.1586088 -0.025005981 0.13400134 -0.15103662 -0.14339997 0.14758523 -0.21957293 -0.017733594 0.17651096 -0.1903487 -0.004293937 -0.109675765 0.09726879 -0.02888782 0.05249962 0.17693013 0.10901676 -0.16078568 -0.09595924 -0.08164383 0.11468729 0.059129886 0.25948402 -0.04832742 -0.014514394 0.048370004 -0.00600684 0.06883062 0.08260885 0.083813526 0.10193304 0.021564616 -0.09922011 -0.035063043 -0.19962184 0.041599717 0.07433317 -0.08504947 0.12474806 -0.09280833 0.03989579 -0.078354806 0.04189008 0.09867415 0.15302327 -0.07941321 0.12866732 0.006641359 0.09608689 -0.058336075 -0.124472395 0.020495499 0.061594617 0.091793686 -0.0019999393 -0.017449271 -0.021035453 -0.03708018 0.074236706 0.09696769 0.24124971
6eH3ilEBGgR 0.14753997 0.20515358 -0.119861536 -0.19508728 0.0044866023 -0.001360095 0.1818073 0.124531925 0.05413365 -0.2871523 -0.0021496364 0.12910675 -0.034686368 -0.002200635 -0.041737072 -0.0052249 -0.058041833 -0.08976577 -0.10399734 -0.085492246 0.056649525 0.11817139 0.034343086 -0.19686036 -0.067751855 -0.043299522 -0.14991656 -0.020903707 0.29533595 0.23999886 0.064116195 0.00772869 0.06080988 -0.22750431 0.014752682 0.03139829 0.027881049 -0.13418888 -0.19047603 -0.15100764 -0.10803551 0.15618977 0.07664944 -0.30692893 0.004771413 8.284894e-05 0.039080217 0.06103541 0.20366035 0.047571 0.20434408 -0.10814883 -0.06020204 0.13207865 -0.11411283 -0.1639971 0.31978047 0.06287929 -0.20778564 -0.07485515 -0.09460354 0.04300713 -0.022995634 -0.26027912 -0.079050295 0.05377751 -0.028279904 0.18327478 -0.1527157 -0.108715504 0.050396625 0.06315359 0.24220516 -0.18092833 -0.06719067 -0.12004863 0.06236954 0.24573208 0.10096941 0.09224326 0.18584134 -0.08587015 -0.2682059 -0.13900504 -0.02201142 -0.17206836 -0.1560901 -0.1093931 0.10334946 -0.03132143 0.12819791 0.020412939 -0.557606 0.03290517 0.17148466 0.16386443 -0.05708239 -0.19839922 0.004661326 -0.0021703881 0.33495733 -0.18367265 0.2714438 0.1358289 0.08194802 0.10970794 0.09593714 0.0484013 -0.18039046 -0.04712322 -0.0322327 0.101369776 -0.28623924 0.20292726 -0.11341125 -0.02653777 -0.04270741 -0.0972534 -0.14718677 0.043705843 0.11247465 0.27061817 0.1799817 0.13507491 -0.09808993 -0.061945524 0.27987674 0.06542788 -0.13114452 -0.119469196 -0.057027806 0.18787178 -0.07415793 -0.15054311 -0.10248537 0.09846442 -0.056139793 -0.057313032 -0.050852273 -0.10083019 -0.15564553 0.076742925 -0.03399275 -0.083275944 0.15114744 -0.04191801 -0.034665372 0.10716379 -0.10741989 -0.0021469484 -0.12055467 0.057188857 0.13141838 0.008123484 0.23764673 0.10705631 -0.26728085 -0.008567945 -0.02118709 0.260629 -0.0057449513 0.3988557 -0.019633012 0.08967006 0.14160234 -0.042849 0.04027749 -0.036786605 0.16443859 0.22759527 0.15161395 -0.13326806 0.032746796 -0.14009438 -0.08759764 -0.0068308045 -0.18613057 -0.088551275 -0.08310098 0.06289039 -0.14401896 0.03284771 0.11531844 0.07245342 -0.052304972 0.115957305 -0.022700442 -0.11397355 -0.09667241 -0.20211534 0.012127331 -0.12243322 -0.052920543 -0.0077831675 -0.06851951 -0.28685236 -0.3802169 0.05890251 -0.04151351 0.21213175
MZ6vt1zk60a 0.036871728 0.6295598 0.077347845 -0.34558973 0.38158947 0.03130722 0.07719845 0.48439142 0.33153036 -0.26045188 -0.106025174 -0.3678279 0.23727039 -0.46495405 -0.08541162 -0.32849127 0.04201801 -0.10642242 -0.19459054 0.19528873 0.19610299 0.4499802 -0.13046925 -0.23259595 -0.0255207 0.031020883 -0.22129932 0.27166802 0.20941065 0.14441526 0.19295555 -0.08612351 0.03645322 -0.25181353 0.1251896 0.03705671 0.066003084 -0.276093 -0.1827744 -0.04997048 -0.106056 -0.14109156 0.14709097 0.018927127 0.2643911 -0.0017084875 0.01161545 -0.021136034 0.09322416 -0.13556941 0.056056783 -0.46281686 -0.20859326 0.19398904 -0.07735159 0.031671852 0.2235279 -0.028605688 0.323807 -0.3350591 0.033482775 -0.12096736 -0.11520121 -0.07901481 -0.47570387 -0.12553284 -0.20559947 0.1990314 -0.117830105 0.072508164 0.2994229 0.11489482 0.40639246 -0.5791031 0.039365154 0.3977389 0.19172384 0.15863055 -0.17928877 0.07434688 0.22687998 0.15898363 -0.2569133 -0.3274068 0.09555148 -0.30850902 -0.10586456 -0.03422543 0.03968627 -0.051944196 -0.25451612 -0.20473719 -0.3195403 -0.100441225 0.21964793 0.026821218 -0.33341512 -0.21141271 -0.3966975 -0.19174019 0.053057767 -0.076889515 0.22834134 -0.04903815 -0.17238738 0.23590004 0.016206028 0.032131482 0.101713784 0.105659716 -0.011572126 -0.3610001 -0.15922657 -0.28161785 -0.04430837 0.1328998 0.39303285 -0.005447927 0.11003744 -0.0056217224 -0.14170402 0.099284485 0.1390335 0.19279905 0.18411313 -0.30599716 0.0992222 0.104250975 -0.015744038 0.19369274 0.11442467 0.2323639 -0.38043544 -0.08275006 -0.42019388 -0.070004426 0.2737513 -0.19360521 -0.23608264 0.014477754 -0.15698715 -0.042311795 -0.09812794 -0.2711809 -0.17237766 -0.35855892 -0.30891222 0.007427018 0.09348306 -0.002618432 0.03106837 0.07427111 0.2038971 0.112660244 0.5451725 0.15934782 -0.31633002 0.09185245 0.15955569 0.1958105 -0.05430756 0.15961747 -0.4162063 0.23964867 -0.1751885 -0.46393806 0.14497113 -0.15046553 0.107089855 0.08497016 0.10227922 0.11561033 0.02026603 -0.19063155 0.17656307 0.029760623 0.16028205 0.09168798 -0.35988423 -0.024529548 -0.1351016 0.07595854 0.25468633 0.10485237 -0.09715165 -0.18319215 -0.12891129 0.10434891 -0.28303453 -0.24298367 0.18963532 -0.16788828 0.07300853 0.103320666 -0.0051709632 0.10976809 -0.34808266 0.06037576 0.118649624 0.2909846
A2vxGyBP3SR 0.26259887 0.60542697 -0.1723445 -0.16606757 -0.24017295 0.19211188 -0.00071198173 0.15718186 0.20624033 -0.32950556 0.028170383 0.04580392 0.46072063 -0.09606667 0.18170829 -0.32307217 0.0020152743 -0.09686674 -0.2166943 -0.128023 0.2874495 -0.12408323 0.0707002 -0.028736519 0.284306 -0.06643199 0.2256698 -0.13353877 0.21947394 -0.024140764 -0.112670705 0.084278174 0.23482862 -0.08750015 0.30483508 0.12332974 -0.013152707 -0.12692405 0.2069358 0.17498711 -0.054650076 0.014885366 0.081034824 -0.47900718 0.012972087 -0.15767625 0.06504107 -0.018715538 0.1459322 0.0933766 -0.012548179 -0.014434163 0.0029941408 0.037247036 -0.33420104 -0.15686537 0.26687434 -0.07863831 -0.19970995 0.07438479 -0.28299442 -0.031409845 -0.18174905 -0.11783649 -0.24053413 -0.029806007 -0.039247926 -0.089978196 0.1114212 0.39499208 -0.07473516 0.32246578 0.35723928 -0.14701214 0.025681771 -0.23070295 0.010409927 0.21120825 -0.032524 0.1454508 0.30314234 0.112179846 -0.19895785 -0.064040005 0.07501409 -0.18065166 0.06600384 -0.45560932 0.049167633 0.09552226 0.027018875 0.3109072 -0.38373163 0.38819337 0.018377787 0.03992325 0.0039731795 -0.5912852 -0.084731944 -0.26931208 0.13088018 -0.17031977 0.32039833 0.19000286 0.076320015 -0.06896336 -0.009280132 0.024272643 -0.14359796 -0.24323978 0.104881115 0.28040677 -0.14905755 -0.061734904 0.072245955 0.1483224 -0.14296168 -0.049699057 0.10776443 0.14190632 0.097757705 0.13507697 0.0136073185 -0.15813707 -0.012388307 0.039644193 0.12595136 0.14322121 0.13419534 0.29931006 -0.2668559 0.35713863 -0.05301173 -0.16033615 0.34342685 -0.2126801 -0.10946833 0.17072372 0.08647657 -0.1753779 0.026803374 0.18869829 -0.0010534566 0.15393524 0.17594847 -0.06982989 -0.0463077 -0.12724458 -0.2566855 0.04647356 -0.046927873 0.08432742 -0.008093641 -0.20222625 0.23119141 -0.038352273 -0.2544122 0.030869335 -0.24006754 0.4178199 -0.13316917 0.055848986 -0.05891438 -0.18373586 0.048873138 0.06108039 -0.1239736 -0.023999918 0.18039419 0.1420678 -0.107921 -0.1495928 -0.0030003234 -0.6046032 0.17857985 -0.0027761948 -0.093499914 0.24120833 -0.029044062 -0.083006054 -0.1903355 0.15276043 -0.27581555 0.1390753 0.023403889 0.3290712 0.028756456 -0.06632805 -0.26752317 0.02074341 -0.049139418 0.07801406 0.10377723 0.05568535 -0.1255028 -0.09120964 -0.17806628 0.19635631 -0.070462346 0.08338587
ChmIqDGQijq 0.13351496 0.12441707 -0.028607104 -0.072233275 -0.084857516 0.09681231 0.06736758 0.07907762 0.08285102 -0.16866353 -0.06846737 0.09754004 0.023516918 -0.129617 -0.059090618 -0.15718275 0.06687751 -0.0021488625 -0.07978361 -0.01322709 0.037512224 0.06796138 -0.1059698 -0.20194967 0.121412165 -0.020518823 -0.14790614 0.032889996 0.15763056 0.21102706 -0.046718154 0.038224768 0.21005347 -0.28864956 0.058645017 -0.029479275 -0.09869099 -0.07527792 -0.15370144 -0.0027253507 -0.05212392 0.16745943 0.07880232 -0.14645654 -0.10243299 -0.03340992 -0.033972297 0.092884384 0.16883057 0.10851423 0.06271669 -0.0277157 -0.11979062 0.04404134 0.0029174634 -0.16524282 0.2926037 0.117762744 -0.022001732 -0.060110193 -0.12448112 -0.11823079 -0.03658766 -0.07053049 -0.12632136 -0.027418835 0.025798844 0.06475464 -0.10621293 0.010442834 0.08144788 0.23889895 0.38635153 -0.18341576 0.056960613 -0.09002757 -0.07948037 0.22399557 0.17181523 -0.011624653 0.18508492 -0.114506066 -0.27153978 -0.04079703 -0.16626923 -0.21325748 -0.017466113 -0.15698242 -0.04240144 0.011625801 -0.05241733 -0.025640566 -0.505317 0.10035481 0.019472057 0.015349012 0.018382065 -0.16186371 -0.1458276 -0.039109506 0.24492352 -0.0425316 0.16521208 0.08787929 -0.07353814 0.060464337 0.07351068 -0.040514827 -0.08227959 0.1063175 -0.121441096 0.076085344 -0.09466826 0.19504969 0.1095554 0.107059054 0.090316154 -0.013249423 -0.017267086 0.15478465 0.10757683 0.1282548 0.14855076 0.21779539 0.027212767 -0.037109323 0.18423219 0.019756092 -0.08465795 -0.07192134 -0.12207435 0.07169604 -0.053142134 -0.032654896 -0.01404162 -0.07680366 0.032963008 0.015744962 -0.12708691 -0.20819178 -0.15449964 0.017169422 0.035933707 -0.047568996 0.10759754 -0.22199994 -0.092836894 0.25254098 -0.09534594 -0.06820398 0.031533796 0.026284678 0.072946094 0.098925754 0.28264195 0.17830564 -0.10284878 0.040872395 0.0122073945 0.20836042 0.007552322 0.21878672 0.05780824 -0.10885031 0.07769118 -0.050012924 0.17901944 -0.06331533 0.077252656 0.15629889 0.14623915 0.021124423 -0.06342574 -0.24712689 0.08855801 0.106540486 -0.16799663 0.06683109 -0.06591626 0.057573937 -0.19850995 0.027366519 0.07803251 0.029563053 -0.03846936 0.08124192 -0.13371846 -0.05361937 -0.131908 -0.033557206 0.03677244 -0.06261473 0.02590214 -0.015196427 0.015651021 -0.16718929 -0.11818072 0.117993176 -0.041695923 0.2050657
KXLwxaqXS2p 0.12663372 0.29115462 -0.12649742 -0.24277353 0.0005760023 0.10550216 0.21890813 0.1843579 0.11363264 -0.033876702 -0.1396998 0.026015202 0.007815488 -0.14354333 0.04702864 -0.08882616 0.046782255 -0.092098616 -0.17909566 0.078087375 0.10846016 0.011712458 -0.02920347 -0.23753947 -0.16377775 -0.11939006 -0.15143113 0.08649682 0.14632232 0.18528675 -0.08401786 -0.11284248 0.11691165 -0.28366357 0.0026911828 -0.1445158 0.029036745 -0.14998624 -0.19775048 0.011596005 -0.056925744 0.09474974 0.19386034 -0.22548446 -0.06857087 -0.047966663 -0.04131946 0.09274449 0.12920325 0.041321512 0.09604525 -0.006467052 -0.16331393 0.14639492 -0.10463266 -0.0880382 0.11240076 0.06482997 -0.06549399 -0.036278263 -0.044664696 -0.04949588 -0.09124418 -0.17531337 -0.13216956 -0.13766177 -0.20910951 0.1265623 -0.16753726 0.11581811 0.030484172 0.14699036 0.3167736 -0.3665026 0.023780545 0.028341753 -0.12713313 0.16185512 0.0057412046 0.028689668 0.18950841 -0.1415191 -0.36404997 -0.19886053 -0.070033774 -0.16120419 -0.058281247 -0.039934363 0.021318411 0.08733974 0.08809296 -0.04819959 -0.730351 0.08759332 0.00592833 0.12791169 -0.09848101 -0.012826558 -0.1741991 0.00011628198 0.19333123 -0.18126078 0.06417746 -0.078948796 0.063920125 0.06964025 -0.024105294 -0.00840871 -0.23286523 -0.13340624 -0.056346886 -0.04906563 -0.23875307 0.096824534 0.14299728 -0.08642774 -0.060905334 -0.11926113 -0.038879484 0.10157059 0.10228399 -0.0019783943 0.08399596 0.08130043 -0.046460208 -0.05434512 0.24372186 -0.12677987 -0.01622575 -0.07714481 0.0548321 0.22441459 -0.20755301 -0.027426664 -0.2610348 0.04497189 0.033875678 -0.06775601 -0.019993803 -0.062077753 -0.043644708 0.056696404 -0.19627447 -0.12245306 0.16045575 -0.091052145 -0.12313721 0.12715447 -0.20682175 -0.014392542 0.07970189 0.19781865 0.05752797 -0.029463066 0.24250033 0.21081412 -0.1135036 -0.05406855 -0.014152641 0.04207353 -0.037402645 0.27092746 0.09147246 0.01634303 0.11629138 0.009440935 0.007971468 -0.075422384 0.072977014 0.19086653 0.17605306 -0.07226701 -0.024170212 0.00024765136 0.08178108 -0.13663886 -0.17798458 -0.11355706 -0.19142015 -0.1098015 0.015819963 -0.045975644 0.14875111 0.16023819 0.001002212 0.2316693 0.18952543 0.1298517 -0.28351867 -0.25987253 -0.08847721 -0.021355513 0.1054771 0.01715167 -0.124462314 -0.12908794 -0.10712597 0.10829881 -0.095248796 0.33261824
O8GBQlYLzC0 0.056335747 0.21825568 -0.15741561 -0.13754329 0.03433849 0.0689678 0.0037508341 0.24057584 0.14290673 -0.0020835986 0.0057648974 0.12174243 0.10511258 -0.2394332 -0.019573648 -0.11699981 0.03475184 0.041332357 -0.13050772 -0.029607706 0.3224094 0.13314123 -0.21537775 -0.2540653 -0.06288856 -0.11027182 -0.0976321 0.0873857 0.26900294 0.089592755 0.0095491465 -0.19727363 0.1473309 -0.14173293 0.06096343 -0.13470194 0.09841149 -0.12244115 -0.015129769 0.07413139 -0.053237904 0.049718995 -0.021768764 -0.11302197 0.0789867 -0.0595409 -0.10841613 0.06126543 0.14583732 0.0020002928 0.048542332 -0.13260736 -0.01932509 0.019137047 -0.1196602 -0.10447714 0.064212 0.03660652 0.100111835 -0.0051646065 -0.03656286 -0.09661601 -0.042322274 -0.20059657 -0.06873016 -0.025113234 -0.16274393 0.18255626 -0.031355366 -0.08467297 0.12776043 0.23490779 0.2226747 -0.3666686 -0.026826777 0.057687264 -0.14447929 0.25340712 0.008334639 0.032702055 0.3675949 0.08221748 -0.17640488 -0.22392847 -0.08147086 -0.19979964 -0.063575186 -0.15598877 0.03548354 -0.06892515 -0.05245994 -0.18257412 -0.4715514 -0.040635947 0.019974856 0.03704451 -0.13465898 -0.09483378 -0.26529887 -0.02936129 0.2694439 -0.17167982 0.2712632 -0.20438536 0.1058776 0.1338368 0.095882274 -0.040640548 -0.25173402 -0.078118585 -0.078400746 -0.049674172 -0.1934885 -0.105696924 0.18487048 0.069081105 0.05028202 -0.13492565 -0.04964763 0.03400522 0.21539529 0.054632183 0.20800222 0.084302716 0.115954764 -0.06622551 0.18369605 -0.09293704 -0.13399436 0.08039255 -0.03207731 0.2531062 -0.092105046 -0.006435231 -0.19840491 0.0014807647 0.011323377 0.12816466 -0.1228627 -0.14007074 -0.036241256 -0.010090972 -0.2898693 -0.16588257 0.08115148 -0.11968269 0.076574706 0.118366174 -0.016384048 -0.099847205 0.0451668 0.18001242 0.045906134 0.096436635 0.28492123 -0.02781492 -0.21509357 0.03299354 -0.17883885 0.040226243 -0.09251308 0.2459486 0.25603268 -0.07400616 0.070627615 0.024740009 -0.03357236 0.009395376 0.07277059 0.17579354 0.115982 -0.10456645 -0.08839593 -0.08619778 0.08565608 -0.08279656 -0.2993867 -0.0042555323 -0.121939495 -0.1513625 -0.02325073 0.0039188107 0.016245114 0.19285992 -0.0058988268 0.35650808 0.0070190346 0.12156323 -0.2743289 -0.12734474 -0.07252308 0.06606779 0.14771783 0.14107862 -0.051261295 -0.06658087 -0.140327 0.25434512 0.025168216 0.13099417
fykIZtS2TxW 0.22274905 0.2940798 -0.00338036 -0.08946892 -0.019693892 0.19456804 0.0077274777 0.15258075 0.12161937 -0.021872029 -0.1736954 -0.13142015 0.120071135 -0.08047248 -0.17933393 -0.30435348 -0.043433577 0.06876638 -0.0669671 0.2969949 0.32289788 -0.12181183 0.08254224 -0.22145602 -0.17001899 -0.26014066 0.06600912 0.17930306 0.25439918 -0.006761775 0.15401633 -0.0677542 -0.012983906 -0.17818289 -0.04829438 -0.27880934 -0.2092296 0.3051447 0.035673574 0.030181186 -0.42677683 0.025339384 0.0053145853 -0.0942313 -0.24389344 0.20824508 0.34464207 0.0700749 -0.06322863 0.05701099 0.24201755 0.16642319 -0.1557492 0.18211916 0.18487047 -0.3447322 0.30069208 0.29441142 -0.24434625 -0.17615968 0.08543622 -0.15864444 -0.07626218 0.34693724 0.058497358 0.34141997 -0.17388661 -0.012194156 -0.026981024 -0.035308626 0.3233789 0.29055288 0.29756057 -0.027981991 -0.04765293 -0.35216346 -0.10682304 0.09296627 0.20115395 0.3807903 -0.007210261 0.23800991 -0.3878092 -0.133314 0.04333292 -0.12810789 0.046027996 -0.42530894 0.010805953 0.08294208 0.14485307 -0.044179477 -0.29767615 0.020838825 0.18794473 0.43131766 -0.08980789 -0.08556425 -0.35552266 -0.29017305 0.09685707 -0.048058838 0.39520475 -0.22244304 0.2941872 0.34733754 0.097579956 -0.027151307 -0.47378138 -0.352675 0.005419589 0.12799183 -0.35792926 -0.00055380503 -0.10258015 0.15971383 -0.1752334 -0.34923184 -0.17763893 0.29156843 0.039346002 0.27178735 -0.09860126 0.47500426 -0.10755523 0.10201195 0.8303373 -0.028833903 -0.3468741 0.042489436 -0.098529205 0.29433405 -0.06724189 -0.0028924386 -0.3879537 0.17866959 0.21984155 -0.07666258 0.106311746 -0.0689619 -0.086711854 0.099952035 -0.19293526 -0.5398965 0.35962167 -0.004046541 0.21257417 0.24214949 -0.07088785 0.1486489 0.2762887 0.060298704 -0.01808448 -0.0027506945 0.0136510255 0.115389355 -0.20476131 0.16612427 0.3433977 -0.08756428 0.15193206 0.2567198 0.05304362 -0.060945332 0.03146672 0.37653 -0.01792901 -0.121027865 0.16894124 0.4266778 0.014276336 -0.14614639 0.08476874 -0.29054177 -0.17989038 -0.17661545 -0.2455135 -0.0860988 -0.068174124 0.029704137 0.22687821 -0.027671108 0.06283816 -0.20967504 -0.36410725 0.49434772 0.044728853 -0.025733523 -0.15153572 -0.3428941 -0.28300574 0.3213947 -0.009719679 0.09602674 -0.24148887 -0.06426163 0.14943846 0.23000678 -0.005904806 0.09830773
miDRoAdibHZ 0.21547888 0.017806891 -0.22094324 -0.10758853 0.17547244 0.029920729 0.005503013 -0.0635521 0.11272571 0.069036305 -0.03613907 0.22804496 0.18152228 -0.14076711 -0.18550393 -0.17172706 -0.007974833 -0.1958037 -0.24338154 0.20823601 0.13214812 -0.029684981 -0.024849381 -0.27244866 0.025083466 0.09666999 -0.15800796 -0.12024997 0.40146542 0.038241085 -0.01968908 0.07671373 0.13164665 -0.048604414 0.08026149 -0.029190358 -0.18558311 -0.081803985 -0.123342484 -0.010344445 0.02523434 0.18833087 0.007577613 -0.13185352 -0.20096105 -0.29296482 0.17031114 -0.10351997 0.12080571 -0.13018966 -0.059800826 0.081026606 -0.078636214 0.050500963 0.027767068 -0.14400676 0.3919655 0.16600685 0.032542393 -0.021816159 0.05384851 -0.022782879 -0.09571169 -0.08959493 -0.14056344 0.031355496 0.1359745 0.05653093 -0.13581815 0.14573139 -0.022787059 0.2535532 0.27578676 -0.16424085 0.025446951 -0.0125757605 -0.06427599 0.10137851 0.11679484 0.03553449 0.029412631 0.003420119 -0.0900557 -0.05598232 -0.093084864 -0.02000432 0.004502329 -0.15743753 0.04945675 0.0030549206 0.015482337 -0.0869864 -0.33859453 0.00993699 0.07140705 0.13519853 -0.1931727 -0.2039552 -0.18169335 0.09255488 0.312145 0.026466513 0.07398335 -0.058982495 -0.334107 -0.0556144 -0.24898088 0.026829991 0.035884835 -0.0038254375 -0.10785697 0.14729138 -0.089876205 0.10513894 0.11849742 0.08190431 -0.10816714 -0.20640883 -0.09544861 0.25226784 0.069993764 -0.095915556 0.05985915 0.15302783 -0.07011716 -0.040081676 0.07999777 -0.07889329 -0.076160386 0.019715557 -0.23231858 0.23908837 0.01534719 -0.16219778 -0.13523607 0.21144685 0.08363426 0.15295762 0.02324646 -0.32957938 -0.03135134 -0.03481379 -0.038181856 -0.12590882 0.30154216 -0.25518608 -0.07920355 0.16820644 -0.1278749 0.1078342 -0.09957468 0.054265063 -0.026086895 0.009917402 0.11745153 -0.0043049264 -0.0064319507 -0.08908048 0.18535118 0.03261843 -0.051809836 0.26865974 0.07521674 -0.14679275 0.00068627077 0.28218734 0.40345395 0.052370615 0.21512012 0.0702621 0.20782313 -0.11109702 -0.038124893 -0.15086646 0.1701494 0.056279726 -0.12513956 0.026016416 -0.07925017 -0.03625509 -0.023171926 -0.1951058 0.049820267 0.026156621 -0.09764838 0.18769725 0.043032467 0.027997438 -0.07188026 -0.095433556 -0.051348865 0.16246487 0.057245437 0.11129341 -0.018844733 -0.2452439 -0.19988073 -0.14398058 0.10056706 -0.024609124
Lrh1f6HBqNL 0.137857 0.12594227 -0.07663784 -0.021424673 0.16649549 0.13390711 -0.008849832 0.20887156 0.18704711 0.0012604519 -0.069272846 0.2478969 0.16494757 -0.30489323 -0.10476065 -0.21051516 0.046748023 -0.06963382 0.01672545 0.030355956 0.2309753 0.24620624 -0.122137934 -0.3053933 -0.027684342 0.041904554 -0.25340196 0.0382353 0.1601846 -0.17239475 0.17926002 0.14289838 0.058304887 -0.1524135 0.098013654 0.051913127 -0.11426003 0.06015387 0.04373577 -0.015458314 0.13319083 0.20534204 -0.032587595 -0.053963814 0.05933534 -0.099005535 0.06568408 -0.101067126 -0.021484487 0.03940193 -0.10168529 0.029688118 -0.058888245 -0.11219437 0.058846775 -0.058723003 0.1834419 0.2669802 -0.028846975 0.062358577 0.14233227 -0.068100296 -0.09212721 -0.19457388 -0.14861721 0.085345715 0.017543564 0.25062665 -0.024305537 -0.028375179 0.077858925 0.031324066 0.18573739 -0.18651935 -0.0132379485 0.14382029 -0.20244627 0.063539885 0.20810014 0.10925747 0.41644284 0.12382756 -0.26991493 -0.094589755 -0.16928503 -0.23093507 0.050476715 -0.18492192 -0.14665256 -0.051397327 -0.008722693 -0.114576325 -0.3888338 -0.14298895 -0.027600365 0.22625814 -0.18601383 -0.14040428 -0.22418125 0.09617739 0.28801203 0.08442507 0.1580106 0.059506603 0.0044124513 0.059039626 -0.15611695 -0.15640596 -0.06715626 0.083539456 0.008767747 0.06293152 -0.22545633 -0.024839543 0.2486795 0.2311497 0.077149324 -0.26860836 -0.03156216 0.1084836 0.024861338 -0.15834683 0.25092283 0.10253592 0.037473597 -0.05733158 0.0943761 -0.040636685 0.007883128 0.0058802525 -0.12933373 0.16899636 0.050800804 -0.19198345 -0.16238901 0.07830726 0.09552339 0.25276956 0.074147634 -0.16133025 0.021855015 -0.16186567 -0.14349067 -0.13007483 0.12741634 0.022690916 -0.09451 0.21698967 -0.08878341 -0.09460733 0.14380111 0.13377546 -0.061939072 -0.018144969 0.15657906 -0.1401282 -0.026998715 -0.0447532 0.042397216 0.05693836 -0.22552179 0.2967984 0.3381135 -0.23158354 0.23188253 0.17748664 0.19208519 0.08657268 0.13103487 0.30423957 0.029635668 -0.1372796 -0.051345848 -0.26470476 0.09994907 -0.043173965 -0.29959482 0.06774304 -0.044638332 -0.20814322 0.1880594 -0.057262644 0.12287017 0.068703406 0.10387305 0.21552886 0.15988791 -0.014959111 -0.1020996 -0.03461263 -0.19337903 0.14716695 0.031608637 0.21003069 0.069382265 -0.16143039 -0.050656583 0.057579517 0.1522937 0.2003956
bxnera4UAq6 0.07247922 0.11593058 -0.11809428 -0.09993568 0.0365167 0.18809214 -0.05913312 0.19387275 0.16082606 -0.33971778 -0.082857855 0.03767797 0.23520981 -0.22025602 0.12451908 -0.045312304 -0.0534493 -0.21128471 -0.21365018 0.17897387 0.12244078 -0.03431771 -0.03021258 -0.108052135 0.0949447 -0.14011903 0.031514995 0.19908811 0.18323232 0.02046269 -0.18594193 -0.25464523 0.03409392 -0.16256233 0.028506028 -0.09670048 0.06825831 -0.08823257 -0.19006239 -0.06389436 -0.20134033 -0.023368694 0.1953176 -0.23445354 -0.19992925 -0.16233964 -0.13359414 -0.07216132 0.20037685 0.053288877 0.15110497 -0.08751417 0.1240551 0.17758432 -0.17236245 -0.23125294 0.047957756 -0.00592944 -0.039257653 -0.010211849 -0.14819553 -0.007381838 -0.09013851 -0.18183659 -0.119721174 0.15394472 -0.14663135 0.14380705 0.00809994 -0.008215861 0.120548934 0.2706594 0.20095144 -0.26789173 0.062144656 -0.21394855 -0.19355261 0.09683595 0.090178356 -0.00509699 0.14631943 -0.16214201 -0.23647588 -0.18894427 0.068194225 -0.09038667 -0.05081044 -0.10113611 0.12729865 0.03991057 0.02439996 0.0063829697 -0.31655142 -0.07224829 0.08757236 -0.028171914 -0.0870061 -0.018505646 -0.1615045 -0.02480931 0.11073965 -0.083918504 0.04072313 0.200444 0.07369027 0.10978737 0.0267129 0.03151104 -0.13716245 -0.051903576 -0.08899114 0.05001473 -0.23204762 0.11528458 0.053759754 -0.05736212 0.037962113 -0.12238487 -0.06720401 0.2369952 0.07935061 0.12551437 0.13591893 0.099497065 -0.028569072 -0.13705237 0.2249412 -0.026612993 -0.047806524 0.054999165 0.05240117 0.17121156 0.12778555 -0.050127238 -0.05709629 0.14759095 0.08515877 0.08988945 0.03215467 -0.23105796 0.047683444 0.12108289 -0.033698227 -0.11489713 0.2805839 -0.28336635 -0.07916782 0.038179383 -0.10975463 0.05926673 0.04998954 -0.031830724 0.013538921 0.02478825 0.25244576 0.09067502 -0.059591964 0.13902065 -0.034658413 0.056340758 -0.1053975 0.2885113 0.037800506 -0.06483842 -0.032743298 0.04334711 0.05886158 -0.08305182 0.04716931 0.10101619 0.039281998 0.035097275 0.09339336 -0.18640426 0.078010835 0.035992917 -0.03253556 -0.08425564 -0.1167077 -0.027266713 -0.08040529 -0.09258543 -0.003515904 0.14037915 -0.027290424 0.12885927 -0.022259507 -0.014141024 -0.17522022 -0.016614791 0.007447011 -0.07450559 0.27645904 0.093674965 -0.08352875 -0.13246067 -0.12210752 0.24471965 -0.11624726 0.18161808
VZutUuidcmg 0.05124612 0.11726702 -0.071029186 -0.00036808237 -0.008967511 0.11108408 0.06476803 0.10272361 0.049572557 -0.15375245 -0.12603669 0.06787425 0.24986094 -0.050473783 0.10483591 -0.19150424 -0.010714036 -0.13237661 -0.046799704 -0.11148241 0.085648686 0.011328124 -0.09816184 -0.12762879 0.0018501723 -0.043713145 -0.03827979 -0.0020529795 0.19827108 0.17415132 -0.11167598 -0.044904448 0.093986616 -0.23091118 0.03853487 -0.09127783 -0.0550596 -0.08349246 -0.026760364 -0.05286887 -0.115383595 0.016929207 0.09829424 -0.2468493 -0.08269422 -0.011144021 -0.20891574 0.05185307 0.18858448 0.11214003 0.017223073 -0.18145844 -0.13217862 0.19389531 -0.20769292 -0.15969002 0.301922 0.15716407 -0.1407648 -0.054798517 -0.072553694 -0.014344374 -0.07676965 -0.32598144 -0.10783758 0.23124622 -0.16538936 0.109564774 0.023313113 -0.008399909 0.20060277 0.17361933 0.30912757 -0.26758513 0.035807535 -0.13036123 -0.16449036 0.14762975 0.07372508 0.031315137 0.2054976 -0.101824395 -0.21633327 -0.14814709 0.047950268 -0.19107793 -0.055987503 -0.14302203 0.15099567 0.05436171 -0.11473684 -0.10174718 -0.40890238 0.1354089 0.09949779 0.0076438505 -0.049946804 -0.22993256 -0.1426416 -0.059385 0.23472628 -0.14750713 0.17159753 0.08431975 0.008461462 0.13647182 0.000572982 -0.08609831 -0.21297027 0.028688358 -0.04694204 0.08674048 -0.12670001 0.08219247 -0.033365462 -0.016679013 0.13772401 -0.19620883 -0.12643468 0.2020565 0.098384835 0.10661956 0.02686706 0.16662192 0.025716536 -0.059060104 0.16376941 0.06271446 -0.15039665 -0.06561051 -0.073510244 0.12587449 -0.091232546 -0.046469558 -0.10695273 0.08543352 0.06464752 0.09110541 0.0037326964 -0.087015465 0.027232349 0.06590664 -0.048960544 0.02214631 0.16129912 -0.16956617 -0.06888728 -0.025480144 -0.10492259 -0.0382161 -0.057087827 0.039667033 0.19591412 0.026020875 0.25702754 0.24320714 -0.08771517 -0.01815012 -0.059995055 0.102426276 0.0153531255 0.25554937 -0.026795805 -0.0060316683 0.03263718 0.04705577 0.067149304 -0.031244028 0.08016319 0.12980895 0.10826997 -0.026910584 0.061148223 -0.36746997 -0.13658231 0.034091126 -0.14486247 -0.10654421 -0.027282722 -0.021894863 -0.23224963 -0.037355382 -0.022966245 0.1501079 -0.050730072 0.14087917 -0.090013765 0.030316992 -0.15157577 -0.18742105 -0.00846945 -0.04519285 0.14968275 0.037158255 0.11840129 -0.05945635 -0.023528887 0.14349616 -0.025809584 0.09791365
5SIJMZhnjkj 0.15957256 0.16723768 -0.050212257 -0.17445202 -0.08477192 0.15136498 0.01965254 0.22614877 0.17573333 -0.09476731 0.025779882 0.102605574 0.12393977 -0.28708163 -0.0054448065 -0.1682713 0.13438469 -0.001522326 -0.28636405 0.1006541 0.30105612 0.20986362 -0.16623916 -0.36742905 -0.0022489056 -0.015734047 -0.12930767 0.14039525 0.24280635 0.13522932 0.10283562 -0.067543045 0.23894534 -0.17783688 0.16640356 -0.18029143 0.11473433 -0.08628449 -0.13099152 0.10907419 -0.031752646 0.22394793 0.007977619 -0.26135665 0.06380942 0.01817046 0.04632485 0.14722554 0.10996692 -0.0030398285 0.055962864 -0.12563322 -0.021135362 -0.14020209 -0.14493793 -0.056234155 0.037312336 0.17654584 0.14640182 0.02989903 -0.06392646 -0.031277973 -0.045633323 -0.08025477 -0.046101943 -0.10322416 -0.10536208 0.17611188 -0.07097972 -0.097396 0.068403944 0.24486572 0.2650379 -0.35805222 0.034457535 0.1808181 -0.1068357 0.11960953 0.043580413 -0.029190546 0.24785133 0.068624265 -0.35673016 -0.24201687 -0.0537654 -0.13784835 -0.06108721 -0.30494893 -0.0993763 -0.021355323 -0.10311173 -0.13762373 -0.49742776 -0.020225966 -0.019511638 0.002594498 -0.15663719 -0.10313039 -0.23953348 -0.056219105 0.10284298 -0.12025397 0.1546451 -0.034445535 0.14580694 0.0009921106 -0.0071480135 -0.014284475 -0.13168095 -0.025498979 -0.14336875 -0.111854054 -0.20099308 -0.035958216 0.21820611 0.036249403 0.10393013 -0.1870045 -0.051051766 -0.020473152 0.25200364 0.09513966 0.11613569 0.28279507 -0.09187342 -0.00026549678 0.21247096 -0.07578549 -0.09753291 -0.040559564 -0.1318282 0.10052194 -0.15454699 0.074701004 -0.2528316 -0.032465328 0.025873268 0.07418538 -0.21823363 -0.17806093 -0.10690782 -0.091778845 -0.24584854 -0.21507594 0.17207098 -0.25461975 0.04999529 0.29610455 -0.024367942 0.02415654 0.007076436 0.19822182 -0.083108224 0.039059237 0.25700834 0.17694895 -0.11323983 0.012274876 0.003920073 0.056053527 -0.035823993 0.12125321 0.24253483 -0.09561286 0.15247513 -0.09405647 -0.046152394 0.10557961 0.07317397 0.12595525 0.15348116 -0.04323967 -0.15751515 -0.000279696 0.04714647 0.07192099 -0.17921206 0.008224091 -0.21874467 -0.1396463 -0.09687805 -0.015667103 0.22426745 0.30201828 0.14550684 0.17833635 -0.02477117 0.08507606 -0.26101458 -0.18683335 -0.029647548 0.027789783 0.07824674 0.1036238 -0.061658945 -0.10352906 -0.21829894 0.26705608 0.0771141 0.24708945
JYMA3HGBGCs 0.077466756 0.08865141 -0.12129575 0.019035086 -0.041103695 0.15275738 0.007488467 0.0953264 -0.07567564 -0.08376509 -0.17961837 0.1375334 0.062146608 0.0054848394 -0.10572576 -0.13369998 -0.12825868 -0.03468128 -0.24364984 -0.11743199 -0.09197548 0.17108613 -0.05569423 -0.23012753 0.089555636 0.013906435 -0.14483494 -0.21734597 0.3016789 0.29076704 -0.016542837 0.0574127 0.116830304 -0.06579759 0.027096193 -0.12507878 -0.02479771 -0.18142092 -0.028786136 -0.104507186 -0.03597895 0.053765923 0.04492592 -0.19986612 -0.17191501 -0.12677062 0.08719604 -0.11066782 0.042683877 0.15345718 -0.0009393477 -0.21467498 -0.124131 0.15949872 -0.077279165 -0.021731883 0.28327516 0.10741462 -0.086608715 -0.12582393 -0.12520918 -0.083456896 -0.0032731867 -0.13970564 -0.22720341 0.18393882 -0.034495655 0.12665194 -0.10328129 0.038168926 -0.0061400887 0.08561659 0.3593419 -0.13557158 -0.005784858 0.100545794 -0.10419559 0.20920704 0.015408235 -0.001219127 0.20508891 0.04170813 -0.23263901 -0.14073448 -0.12613212 -0.086026266 -0.12072611 0.002153194 0.12820154 -0.033544954 -0.009153159 -0.1809655 -0.40577498 0.10093764 0.094259545 0.14996813 0.028904712 -0.18809868 -0.1977789 -0.051787082 0.3005196 -0.1613948 0.12905294 -0.0994715 0.060464174 0.14008017 -0.23865178 0.09142615 -0.19770518 -0.032432817 -0.088524096 0.16463874 -0.1517769 0.065978564 0.13846442 0.011370999 0.123921506 -0.0603481 -0.088201374 0.23250088 0.14216395 0.058312748 0.062709056 0.08172269 -0.059091087 -0.02168138 0.284037 0.11404552 -0.12436308 0.08345737 -0.26175696 0.21716763 -0.10789129 -0.009861555 -0.043213528 0.17699926 0.00038041934 0.05364868 -0.13025041 -0.18556926 -0.077619076 0.0070374007 -0.13331112 -0.10969941 0.13320486 -0.13266267 -0.046386488 0.04227326 -0.22250482 -0.06798431 -0.17091183 0.042462584 -0.045783516 0.03588719 0.25449368 -0.0033051353 -0.22781613 -0.21068364 0.009852014 0.014846287 -0.08850062 0.25841594 0.03696149 0.07649091 -0.030825749 -0.06415669 0.050209194 0.08223593 0.22123998 0.079630256 0.122317754 -0.09899075 -0.048060443 -0.18164672 0.10615523 -0.14070334 0.028949806 -0.058669906 -0.11913311 -0.038229574 -0.14720115 -0.08277386 -0.0785548 0.06661361 -0.18079256 0.14254044 -0.16053362 0.11280763 -0.3028032 -0.08456665 -0.16668914 0.15766823 0.18517631 0.074410096 0.11093807 -0.04491865 -0.20052305 0.20420323 -0.03541017 0.24412
mBSL6YpAlEm -0.021811964 0.10926744 -0.17446272 -0.10679491 0.19780271 0.3563433 0.20345324 0.03988708 0.031123262 -0.28067636 -0.07225487 0.09094741 0.20334537 -0.41772798 9.911743e-05 -0.15430592 0.028659921 -0.17240077 -0.06153516 -0.005780793 -0.075148255 0.13868733 0.055891655 -0.44214642 0.061634853 -0.055942573 0.0033000405 -0.16105556 0.3550403 0.3312942 -0.09556109 0.020626098 0.041021075 -0.38953012 -0.17688833 -0.065674685 -0.4003846 -0.30643308 -0.2247933 -0.09585888 0.0059463885 0.23366551 0.23527656 -0.24692908 -0.03970729 -0.047211625 -0.0077588637 0.08346824 0.092844576 -0.25866342 0.09298131 0.09787111 -0.019616194 0.0019657018 -0.17934136 -0.25802773 0.45119017 -0.020401705 0.014454144 -0.026966678 -0.18671782 0.019816598 0.041538488 -0.08443731 0.16368808 0.20681797 0.15228839 0.08238658 -0.20173034 0.050084706 0.25426364 0.26724032 0.47225887 -0.27799603 0.04661289 -0.13434918 -0.009061622 0.30874214 0.060163032 0.066535465 0.19977474 -0.053904444 -0.14970519 -0.22839603 0.011692542 -0.34287888 -0.128093 -0.07913301 0.074671 0.19797537 -0.18247016 -0.07075621 -0.41632396 0.261475 -0.0591607 0.17600119 -0.0116216475 -0.24244541 -0.24716519 -0.055665787 0.30633885 0.00034539987 0.17929804 -0.14634009 0.051201016 -0.042047936 -0.11741023 -0.0715833 -0.28319824 0.11706269 -0.03542876 0.18333672 -0.2523991 0.19536634 -0.069890276 0.039531104 0.16392659 -0.16034779 0.15581985 -0.009897335 -0.17899962 0.22124495 -0.1003035 0.31060022 -0.05747114 0.119126394 0.12469948 0.3160523 -0.2726821 0.015378704 -0.27830687 0.16154318 -0.08286032 -0.16206013 -0.23022322 0.08061656 -0.08081734 0.070040666 0.22931816 -0.37041232 0.035106286 0.13714613 -0.077874914 -0.05121173 0.0034034348 0.0183964 -0.0615093 0.17823645 -0.31054887 -0.3699909 -0.07158328 -0.05939722 -0.2030129 0.13192005 0.42644557 -0.00079804775 -0.17313105 -0.16396536 0.04666291 0.17547573 -0.0020775432 0.38550553 0.066366695 -0.0073434813 0.19571848 -0.11629198 0.16282737 -0.024748147 0.10514206 -0.0172594 -0.27840742 -0.079030484 -0.09296569 -0.2167382 0.25922304 0.11948503 -0.19963183 0.042510368 -0.0743226 0.3489341 -0.21999054 -0.014935677 0.09640113 0.07832547 -0.13626353 0.20609543 -0.26245332 0.22342515 -0.023274096 0.20045236 0.0018250193 -0.10705546 0.108896315 0.011466358 0.057576384 -0.15332827 -0.07733611 0.20044164 -0.1152997 0.19066101
XtHWCn0vLCP 0.087340005 0.1634245 0.012532101 -0.1735122 0.057237078 0.019168584 -0.12372621 0.043854464 0.026539208 -0.19753659 0.011434988 0.20427461 0.004344407 -0.036699444 -0.0018889289 -0.02896773 -0.00037534352 0.021697622 -0.17267478 0.1765251 0.21765365 0.12441994 0.10384988 -0.18079197 0.15413892 -0.063143134 -0.17751323 0.19450149 -0.008464425 0.12478176 0.06487307 -0.14118482 0.11678235 -0.08257503 0.097116075 -0.055913284 -0.031967357 -0.09180103 -0.14418998 -0.14799868 -0.029031403 0.23431689 -0.018687213 -0.12582774 -0.05693333 -0.027279083 0.07136883 0.05077272 0.010975421 -0.022061352 0.06317866 0.022758095 -0.001452859 -0.037961338 0.16533461 -0.24883907 0.2795828 0.21432817 0.035282962 -0.08287229 -0.014752693 -0.06882739 -0.08632581 0.1095245 -0.04561185 -0.07300477 0.10483639 -0.03829875 -0.108357385 0.11268387 0.12860227 0.29343522 0.32629514 -0.16227631 0.021988533 -0.066929124 -0.19916402 0.15053892 -0.051256385 0.091607094 0.1647327 0.015847242 -0.29400158 -0.10531375 -0.13889928 -0.14325243 0.00013573503 -0.17514089 -0.10222306 -0.06764204 0.010298689 -0.10217027 -0.54615575 0.036209363 0.083785884 0.25581095 -0.19378711 -0.16516978 0.050378468 -0.05015064 0.21942182 -0.034988303 0.017666113 -0.055941638 0.0773884 -0.0658661 -0.03844116 -0.0016425085 -0.038078252 0.019816464 -0.06530756 0.18908265 -0.1900157 0.20714131 -0.02982452 0.035766076 -0.031175783 0.19354126 0.0027165837 0.0884257 -0.032501914 0.055498894 0.13587737 0.2678637 -0.116432056 -0.09418883 0.2804187 0.122508705 -0.19941139 -0.019864092 -0.26692635 0.2507077 -0.057635445 -0.03907856 -0.021232279 0.020238876 0.03125628 0.018854078 -0.14997977 -0.280994 -0.027318252 0.14357342 -0.1282015 -0.034361023 0.004094682 -0.036829855 -0.016104652 0.1361454 -0.076973714 -0.14946589 -0.14930472 0.10254158 0.10032652 -0.048912182 0.12500322 0.014759137 -0.009217886 -0.041297704 0.03147737 0.14472888 0.038859125 0.3008241 0.12722564 -0.087395914 0.10482928 0.07260764 0.032668296 -0.045086835 0.28543964 0.11742045 0.060743682 -0.075315215 -0.006294117 -0.23625763 0.07837064 0.003955435 0.017177515 0.17594334 -0.07370046 0.047415666 -0.32610592 0.028793462 0.1382679 -0.06095793 -0.1304278 0.06549234 0.017485837 -0.11190146 -0.07615576 -0.12879945 -0.09678364 -0.018849706 0.06622452 -0.075837 0.026685983 -0.028538533 -0.16979553 0.016325751 -0.16850136 0.33534357
tFoHpKQyODU 0.08890484 0.53168833 -0.10192775 0.029261075 -0.055061206 0.0043441304 0.1044259 0.15594596 0.16526154 -0.06760854 -0.023767978 0.08628085 -0.09250126 -0.3302234 0.0052815313 -0.3053265 0.32717147 -0.025047872 0.072434574 0.2450839 0.59863645 0.11308782 -0.121265516 -0.33774692 0.09764359 -0.11138057 0.00842029 -0.012636378 0.34050953 0.22537111 0.095261924 -0.008665575 0.04156861 -0.27620524 -0.1731816 -0.22758694 -0.07410333 -0.07751728 0.061068393 -0.09893622 0.07335904 0.29406652 0.06894594 -0.08095902 0.12266696 0.011459058 0.15695068 0.22931878 -0.0059303865 0.052781135 0.0035327442 0.13896903 0.029688742 0.10357413 -0.009875182 -0.12438212 -0.022139482 0.26093897 0.070627786 -0.023371145 -0.082105614 -0.04025173 -0.10389434 -0.2141902 -0.24054544 -0.059433572 0.088694744 0.11216413 -0.1266685 -0.22323379 0.09780747 -0.12469985 0.23096992 -0.28217512 -0.010656587 0.1967315 -0.24134134 0.03543133 0.11882953 0.14393555 0.109716356 0.10460408 -0.096061915 -0.36620623 0.014873424 -0.39359477 -0.15969074 -0.2040584 -0.22769699 0.037991244 -0.018099476 -0.11731541 -0.607369 -0.20814237 -0.12184587 0.20956534 -0.027488362 -0.016593898 -0.14137432 -0.07211904 0.048873357 -0.0030727757 -0.088351145 0.29520482 -0.07015152 0.014536139 -0.13344826 0.0022369302 -0.17058046 0.0367213 -0.025686055 -0.09224272 0.038587596 0.018239506 0.34541813 0.26934788 0.09368828 -0.2987011 0.031834297 0.123182856 0.17858428 0.010754882 0.07154445 -0.22538908 -0.01117593 -0.11172796 -0.0023738341 -0.061611477 -0.0349899 -0.00044480752 -0.15665615 0.33837694 -0.01971507 -0.1801786 -0.42099777 0.07797406 0.025376903 0.26208833 -0.09888821 -0.15250635 -0.08101731 -0.06672766 -0.15731512 -0.18098015 0.41348267 -0.16299775 0.1351574 0.27771878 -0.16295072 -0.07023246 0.12420018 0.26974213 -0.06800901 0.07831364 0.26329046 0.04264515 -0.20146029 0.017011898 -0.017140863 0.028201152 -0.18906662 0.29861125 0.12323338 -0.21668705 0.10194468 -0.06334174 -0.059642933 0.084807865 0.17599832 0.5358246 0.08641328 0.19327667 -0.04097798 0.0066531776 0.16055252 -0.0065363045 -0.1145988 -0.046155743 -0.31575465 -0.22630689 0.011376851 -0.07969104 0.08392591 0.086709626 0.0076335953 0.2850514 0.16723898 0.0583215 -0.28394264 -0.13077101 -0.1985435 0.10767826 0.101864204 0.08098439 -0.11713091 -0.39158782 -0.19067469 0.40078965 -0.030615255 0.36005276
pwVbwZVGgrH 0.105117835 0.20555344 -0.041285582 -0.14789729 -0.16770338 0.16604279 0.10018796 0.14558141 0.14367202 0.042307395 -0.2438071 0.0045118337 -0.04265139 -0.14388779 0.056796797 -0.20267865 -0.0056217946 -0.20647672 -0.089568585 -0.008422086 0.07915177 -0.008172373 -0.1163568 -0.14301294 0.023146238 -0.1202339 -0.22295263 0.17475654 0.02436571 0.08519137 -0.07399935 0.22330809 0.09377067 -0.17220268 -0.2028376 -0.20257157 0.022159167 -0.07054142 -0.06880111 -0.054023176 -0.024519764 -0.11130153 0.19524698 -0.21817848 -0.08575319 -0.019236224 -0.07981095 0.011310736 0.09398859 0.18985811 0.11087462 0.02280449 -0.11547398 0.05079768 -0.18020126 0.015514649 0.21505514 0.14064531 -0.06356546 0.010491572 -0.20475955 0.0052375067 0.007218979 -0.10727558 -0.1830567 0.024287092 -0.22240509 0.14484616 -0.07795541 -0.02005393 0.044073697 0.12985532 0.3411151 -0.35401043 0.011037694 0.13298237 -0.1594938 0.23113482 0.13996342 -0.0141096525 0.1409451 -0.24494863 -0.22256039 -0.10828843 0.041470222 -0.33828533 -0.16835698 -0.08572111 -0.008632552 0.17872755 0.02689093 0.08299266 -0.42514306 0.010658104 0.12470155 0.14658944 0.028983712 -0.25718653 -0.17871201 0.05313578 0.13387005 -0.062127527 0.058393214 0.034407113 -0.04312173 0.08887257 0.09206963 -0.16654582 -0.22654971 -0.07602343 -0.032650508 -0.03444801 -0.31964177 0.20892043 0.05383096 -0.054918017 0.08804829 -0.2069886 -0.029394316 0.31313086 0.20953885 -0.050646476 0.07810765 0.29969338 -0.005468109 -0.048190717 0.2249604 -0.04461335 -0.05530953 -0.103700615 0.03014978 0.041927032 -0.16266158 -0.05559749 -0.21277906 -0.05504681 0.17237972 0.059396006 -0.051322404 -0.14606641 -0.15088488 -0.040744565 -0.008501861 -0.05761047 0.26496094 -0.16420712 -0.069813214 0.15199693 -0.28858307 -0.04421916 0.043009195 0.18326096 0.012216797 0.046752784 0.35868797 0.2437614 -0.14928767 0.0033219943 0.0084329955 0.19371301 0.060133416 0.2662891 0.048863146 -0.033464506 -0.02845018 -0.06144931 0.1580467 0.010536132 -0.02262127 0.25074923 0.2564206 -0.07021399 -0.07232577 -0.035548523 -0.12124952 0.10544951 -0.18280078 -0.012422225 -0.11595616 0.2230716 0.012224082 -0.06564051 0.13705143 0.10191497 -0.017537972 0.11339635 0.12744553 0.06950965 -0.22092938 -0.12864372 -0.059566196 -0.13258281 0.17196107 -0.053723395 0.09918152 -0.06706631 -0.21284969 0.2562872 -0.14148062 0.38374528
LqbPlk4I6aA 0.046756227 0.249028 0.03713807 -0.0382142 -0.10325737 0.20519395 0.1098177 0.1876867 0.2255948 -0.1304469 -0.20493466 -0.018692259 -0.008596239 -0.32074308 0.21891552 -0.15449819 0.061291512 -0.32270357 -0.45621017 0.19394611 0.30300716 -0.11063858 -0.03890319 -0.09631036 -0.06024939 0.04252667 0.12814182 0.44430405 0.11087772 -0.06068104 0.043561075 -0.22544876 0.19977187 -0.108621255 0.020701472 -0.15218474 0.0924837 0.09349837 -0.20140949 -0.24866176 -0.06996154 0.07979761 0.21729009 -0.2592278 0.053530246 -0.1533308 -0.016432097 -0.051615205 -0.022990363 0.37433365 0.038400423 -0.07097963 0.10912954 0.16939946 -0.15217927 0.054601252 0.047443163 -0.011989009 -0.14258981 0.012509126 -0.16205108 -0.014507484 0.26542553 -0.19745457 -0.182875 -0.12322457 -0.087204464 0.17915279 -0.24138273 0.15286948 0.115022495 0.2003159 0.39517045 -0.43501985 0.009600253 0.12709777 -0.46771103 0.022511244 0.105908856 -0.046071302 0.121651925 -0.30451417 -0.3409772 -0.119769126 -0.018217856 -0.17999388 0.15936415 0.035066675 -0.084086515 0.047818575 0.080412105 0.020735541 -0.52682865 -0.02169163 0.00056647416 0.17515662 0.015314066 -0.016512197 -0.094015226 -0.13906147 0.052162044 0.0763338 0.14102048 0.107991084 0.18465175 -0.16469282 0.10152498 -0.10449632 -0.20634447 -0.18979907 0.019090245 -0.05085725 -0.043985497 0.1394751 0.2898567 -0.0046444405 -0.19131273 -0.1067288 -0.021847242 0.18125696 0.19354364 0.036159124 0.07616455 0.20665967 -0.16211168 0.016891968 0.033765785 -0.05725257 0.13249297 -0.09460377 -0.048813228 0.149552 0.11576993 -0.0023902822 -0.104032345 0.014615065 0.098940216 0.013777649 0.03914378 -0.119043805 0.004754263 0.02274039 -0.17530775 -0.06902631 0.27790982 -0.1705361 -0.15556863 -0.07881978 -0.2584384 -0.08435825 -0.044477887 -0.007921169 -0.09852581 -0.045338485 0.18950163 0.013319685 -0.08044115 0.077602126 -0.07799191 0.078883946 -0.23451489 0.22211333 0.17489822 -0.20922948 -0.051321793 -0.0027804414 -0.05345337 -0.18983677 -0.033882443 0.10862402 0.06530993 -0.025598636 -0.12116778 0.22170007 -0.0018745573 -0.097449765 0.049726345 -0.042268567 -0.19822696 0.04894484 0.16082457 0.05403665 0.18369378 0.2310762 0.2636087 0.31051466 0.05577803 -0.0044164266 -0.3686865 -0.1918437 -0.049061015 -0.1894166 0.19336362 0.23198074 0.031166451 -0.13926373 -0.20884617 0.285159 -0.116748184 0.41623878
msvGTNLtAG7 -0.033353094 0.35681498 0.20139103 -0.088887274 -0.09338722 0.029107764 0.09155579 -0.16053341 0.17307922 0.21867694 0.0192071 -0.19760564 -0.17009832 -0.37840936 0.06751715 -0.006350183 0.1501847 0.044834424 -0.10131277 0.2792662 0.25757235 0.038211968 -0.14427537 -0.48007026 -0.108712964 -0.10758941 0.16769466 0.33429736 -0.013499541 -0.08326849 -0.27418453 0.011264076 0.09260072 0.12072127 -0.03711447 -0.032522205 0.1402044 -0.0504878 -0.3582547 -0.14815019 -0.10625795 0.33845258 0.083443075 -0.17836854 0.1086562 -0.16682595 0.1764133 -0.07270993 -0.16419296 -0.19490343 -0.023922928 -0.076368496 -0.1322306 0.17646351 -0.04089757 -0.15199694 0.25096688 0.11969191 0.0064419196 0.18054913 -0.025551548 -0.027735477 -0.24707715 -0.3815697 -0.009757979 0.15551314 0.08744183 -0.041824292 -0.101675764 0.24657962 0.11031772 0.38874403 0.22813612 -0.1869526 -0.09560117 0.20096436 -0.027603595 0.17306136 0.092028186 0.023912145 0.05757311 0.0053607556 -0.043141168 -0.22838841 -0.4241746 -0.15490066 0.034928985 -0.13212617 0.13627166 0.043632075 -0.05701096 -0.16045955 -0.2528151 -0.1128968 -0.07084887 -0.101056345 0.09672746 -0.31833106 -0.32854247 0.013946885 0.33032584 -0.107573286 -0.009235514 -0.36842716 0.0829757 -0.094565965 -0.089844376 0.19244732 -0.17998937 -0.0886163 -0.10567977 0.19890796 -0.17096245 -0.12412901 0.1619155 0.36669222 -0.1562659 0.20243654 0.24692932 -0.1495392 -0.06557092 0.027986217 0.038106192 0.20675386 -0.024653014 -0.34781796 0.056103703 -0.24922441 0.040913858 -0.0072008865 0.022800153 0.16974947 0.044749446 0.052850742 -0.15406764 0.08697098 0.10962329 0.076778494 -0.085639134 -0.1280964 -0.34620652 -0.11094563 -0.07535243 -0.17650284 0.41652998 -0.29867965 0.06779717 0.48237723 -0.0008472225 0.05739042 0.0061811404 0.29216653 0.2706363 -0.02960279 0.450657 -0.023801614 0.22351263 0.12656337 -0.04389768 -0.17309853 0.03352998 0.2032882 -0.07923369 -0.18869483 0.09468833 0.06021263 0.07634137 -0.10497951 -0.20689553 -0.17758667 0.019275488 0.076330155 -0.066062815 -0.43527526 0.045100767 -0.057279445 -0.43532026 -0.09702145 -0.537224 -0.2698042 -0.17419127 -0.12874317 0.10894075 0.23606662 -0.17596394 0.47166884 -0.10260175 -0.12834054 -0.34017652 -0.2563169 0.08804862 0.24655358 -0.03711468 -0.13011949 -0.2319238 -0.19174649 -0.10370505 0.25002864 -0.2540288 0.17101337
VFtaUbvURDx -0.05692849 -0.070883736 -0.2205297 -0.0024371387 0.13801095 0.20789063 0.061026603 -0.1796011 -0.04508984 -0.0023173282 0.0053187287 0.14307843 0.35293806 -0.13287474 -0.007301841 0.03512551 0.06635693 -0.09518747 0.014208669 -0.03259666 -0.079375446 0.09263675 -0.13883594 0.082346335 0.15549715 0.20266876 -0.01118057 -0.08171455 0.09305497 0.19559237 -0.018000273 -0.10001423 -0.11557402 -0.18185438 -0.047054376 0.1093693 0.07488746 0.0015134492 -0.3136965 0.08448743 -0.0036960237 0.14084294 0.17350456 -0.15483016 0.21025352 -0.0012762002 0.18229619 -0.005812908 0.30396464 0.23826115 0.0712449 0.06710553 0.12471279 0.11727185 -0.41180277 -0.21917136 0.41189957 0.010578853 -0.25126746 -0.27335244 0.050109953 -0.23266761 0.06308737 -0.21193969 -0.31955242 0.19169575 0.07727195 -0.039010294 -0.19534649 0.05284568 0.38750583 0.20448695 0.31091857 -0.04859821 -0.021679169 -0.07145705 -0.23059891 -0.06197494 0.10641762 0.17888594 0.21977827 0.091732115 -0.4586759 -0.24501474 -0.14598219 -0.014083761 0.17598651 -0.11351065 0.18436691 0.06956123 -0.016883472 -0.057662062 -0.4079593 0.21556422 0.15364529 -0.12717915 -0.13982166 -0.02586719 -0.12545276 0.17875938 0.25036275 -0.24303879 0.199717 0.112705775 0.1376339 0.15911715 -0.13997096 -0.11988105 0.021341851 0.11139886 0.06195537 0.005972915 -0.15050027 -0.11028909 0.064763226 -0.0539538 -0.109010145 -0.08581138 -0.118813746 0.039798476 0.01968488 0.03497623 0.098447606 0.14214483 -0.16046605 0.0029373022 0.1994585 0.2632154 -0.07499339 -0.09120538 -0.10798667 0.12605992 0.0147100855 -0.14353472 -0.26645678 0.09180781 0.058780096 0.12827967 0.1531095 -0.28207427 -0.33442855 0.2023907 -0.022518015 -0.00468759 0.36520842 0.033018813 0.038156975 0.12894233 -0.06774538 -0.02231291 0.1278469 -0.27582172 0.094605416 0.16041152 0.031894725 0.048367195 -0.23822175 -0.1611524 0.0014525842 0.13837846 0.10754727 0.13179834 -0.1216728 -0.11663154 -0.37710753 -0.030904787 -0.17231838 0.08448876 0.17320679 0.09732471 -0.015504235 0.079209164 -0.036408648 -0.33999395 0.05227204 0.19693123 0.04412015 -0.023512652 -0.09844078 -0.023002313 -0.07023282 0.03209815 -0.13992478 -0.075693995 -0.016880846 0.18402585 0.12952158 -0.0033425842 0.063778244 -0.35119668 -0.245186 -0.0835268 0.13518764 -0.009860488 -0.0101894345 -0.25750723 -0.14955091 -0.0363799 0.106566966 0.12164062
QcLaIDcFqJa 0.088067986 0.17124844 -0.089037456 -0.13118212 0.00102822 0.10522613 0.0074514085 0.17992005 0.21176133 -0.07906784 -0.15818217 0.057339136 0.12544955 -0.19787833 0.008590972 -0.08556196 0.081096634 -0.0066855913 -0.07854223 0.0027818542 0.08336232 0.06270815 -0.022412537 -0.1609387 -0.020976817 -0.13963206 -0.16703454 0.026374249 0.21885715 0.0555724 -0.104439795 -0.18194485 -0.03505489 -0.13758451 0.027228117 -0.13699347 0.016721707 -0.110496454 0.003945457 0.015083059 -0.1382971 -0.018692816 0.0640313 -0.09922445 -0.050017256 -0.068035975 -0.041830298 0.035120677 0.07017861 0.060626186 0.12898134 -0.044786487 -0.03368542 0.16635339 -0.20350242 -0.17107163 0.1616764 0.07576833 -0.02790003 -0.034767166 -0.08681027 -0.1613687 -0.17740646 -0.26070037 -0.1300141 0.21332867 -0.05810489 0.14051986 -0.09675318 -0.027079055 0.13599093 0.18380417 0.251854 -0.35183436 0.06935253 -0.07635405 -0.14310911 0.13757221 0.14108124 0.1485531 0.1691348 0.0016664901 -0.16503231 -0.26621455 -0.092149414 -0.16294388 -0.13036004 -0.15415528 0.036559418 0.053649403 -0.19083397 -0.16815262 -0.45642406 0.05438741 -0.014953306 0.0033654366 -0.07235632 -0.15284315 -0.16193497 0.09017364 0.18280464 -0.020745773 0.10466623 0.02647371 -0.026948804 0.06995703 0.03619821 -0.0194733 -0.035904717 -0.017133143 -0.20142032 0.09815657 -0.19768514 0.11428992 0.05848993 0.022677574 0.15369168 -0.14242707 0.051625688 0.15181592 0.15678604 0.14286824 0.1857556 0.041297957 0.043199223 -0.011522359 0.24896458 -0.001817146 -0.2204448 -0.0033371048 -0.09133375 0.20718198 -0.15591946 -0.07094832 -0.03614006 0.05981688 0.00956218 0.054779217 -0.016168451 -0.23668517 -0.0032208755 0.051188186 -0.025582038 -0.078556836 0.15657662 -0.16615108 0.025898853 -0.012773268 -0.05494151 -0.042190038 -0.052833866 0.08906088 0.15084164 0.08386294 0.13493724 0.1618388 -0.08642606 0.037424345 -0.0320528 0.13512808 0.06062955 0.36699197 0.07620901 -0.10978264 0.01102812 0.054058112 0.19332412 -0.06314346 0.116233595 0.14966361 0.08301381 -0.09899847 0.028328512 -0.26013374 0.079814605 0.119690485 -0.18690024 -0.10495369 -0.038321547 -0.12443861 -0.09631509 -0.053162206 0.053696346 0.06910448 -0.07994842 0.13939972 -0.073933356 -0.068203256 -0.1712886 -0.09414198 -0.08645019 0.0030750916 0.14061065 -0.026069878 -0.037031043 -0.041763168 -0.15205523 0.1278921 -0.04114732 0.23097289
wkDViowvv65 0.25485322 0.124259554 -0.11747708 -0.12936775 0.15068197 0.2847516 -0.0022259806 0.105404794 0.18995778 -0.10680704 -0.16470627 -0.0397024 0.18757966 -0.2795235 0.013867356 -0.10725155 -0.038556404 -0.10235889 -0.13294949 0.07843268 0.0906109 0.09212775 -0.11589604 -0.22577763 -0.01973686 -0.10990353 -0.26491794 0.11925061 0.08319761 0.12973343 -0.14447626 -0.04143891 -0.010934681 -0.14268118 -0.029567901 -0.06411813 -0.014693279 -0.10038294 -0.12028847 -0.13417722 -0.21913607 -0.025054477 0.14613552 -0.25028932 -0.08377355 -0.09003971 0.00909862 -0.048617907 0.0264939 0.047071736 0.050280187 -0.029829225 0.045135427 0.15020059 -0.23404488 -0.14012323 0.18223608 0.11318276 -0.13217373 0.035577256 -0.15417038 -0.109919205 -0.15796676 -0.26604477 -0.107991084 0.083387114 -0.04274495 0.22580174 -0.021196054 0.03169376 0.0020098619 0.17215407 0.17320742 -0.23445994 0.002718456 -0.17408583 -0.12862797 0.0633839 0.012269293 0.12979044 0.15788908 -0.062172685 -0.15225516 -0.19117203 0.03356841 -0.029295804 -0.09308587 -0.10546162 0.13135031 0.12775823 -0.120842315 -0.08648568 -0.30794728 0.11246715 0.05533152 0.053610623 -0.03233135 -0.19959193 -0.045746654 0.066809766 0.1013817 -0.10771959 0.14493175 -0.0018145842 0.016484683 0.1662073 -0.02756575 -0.15766768 -0.034777567 -0.014567937 -0.10707307 0.16999397 -0.20915467 0.15556712 0.027909908 -0.096561946 0.11099675 0.0060028904 -0.014783734 0.1642612 0.09542882 0.07793677 0.15097243 0.06465697 -0.0018189583 -0.035630412 0.26236275 0.13006862 -0.07341683 -0.0041337768 -0.14005592 0.14622217 -0.12255068 -0.05534158 -0.08615811 0.13104707 0.023825001 0.137597 0.0372407 -0.10779977 0.031033514 0.089443676 -0.007483312 -0.05517704 0.17325895 -0.215107 -0.054549605 0.059427727 -0.17042151 0.05572129 -0.0075372364 0.10112856 0.036698163 0.043967612 0.16993693 0.110903606 -0.093533024 0.022677084 -0.021051653 0.06167497 0.09597552 0.32935566 -0.022207731 -0.018047262 -0.07068402 0.08103871 0.1669399 -0.0010372939 0.07625885 0.19897275 0.1361247 -0.009410113 0.09526932 -0.26173988 0.12452617 0.04734307 -0.012803535 -0.18875185 -0.10335676 0.03365674 -0.061094902 -0.17381127 0.07522993 0.09221046 -0.019491047 0.30875298 -0.029906726 0.033453986 -0.0102116065 -0.086539455 -0.090909526 0.014934307 0.23737858 -0.02166642 0.04258172 -0.03296164 -0.094160885 0.13992909 -0.06351695 0.20783676
LcTBf5gQ71q 0.3483278 0.44299513 -0.080245696 0.012598486 0.5608632 0.17533907 0.13542975 0.23231322 0.012752936 -0.14324059 -0.38541734 -0.30675778 0.12627262 -0.3360181 -0.15307419 -0.25242004 0.03689 0.0013759312 0.059245724 0.26944888 0.401968 0.37675342 -0.015052011 -0.14288533 -0.008252501 0.06800442 -0.1433081 0.16689292 0.2842761 0.05403117 -0.11691369 -0.58758134 -0.044349678 -0.05637126 -0.061071567 0.07797134 0.054335337 -0.2338141 -0.20655076 -0.14346279 -0.03875394 0.023092616 0.06173303 0.088103406 0.3008714 -0.29906118 0.1323348 0.06186013 0.26868296 -0.076758996 0.09780591 -0.3437761 -0.28338408 0.41143268 0.09973406 -0.28045973 0.278362 -0.08553429 -0.0025804809 -0.45010424 0.035833716 -0.11467031 -0.23799565 0.03611163 -0.6218407 0.24488252 -0.017484209 0.15481597 0.040897433 0.2611374 0.3650196 0.27744535 0.22001332 -0.29735053 0.07208235 0.009992153 0.20204489 0.2563421 0.24153605 -0.11831411 0.3483596 0.13870974 -0.49231085 -0.062361494 0.022622699 -0.21216299 -0.102425426 0.2723649 0.13996369 -0.048181884 0.0036929878 -0.17577727 -0.25764576 0.085226655 0.2728471 0.45563525 -0.31481445 -0.33873707 -0.11983682 -0.08606022 0.14066711 -0.044631142 0.4234527 -0.079098515 -0.28318262 0.036005083 0.022683451 -0.15719798 0.05558632 0.41805038 0.15510483 -0.07645749 0.0034426765 0.01884159 0.0027878745 -0.005157408 0.15012808 -0.002817923 -0.075157195 0.003681302 0.082722895 -0.16553837 0.21218354 0.2666027 0.32126072 -0.33977142 -0.0029069213 0.10608022 -0.16719975 0.16889292 0.1404264 0.30445057 -0.19467281 0.031489052 -0.44205028 0.042318825 0.12437133 -0.057869285 -0.20721862 0.13204932 0.05129457 0.17366667 -0.13336058 -0.12705104 -0.18581426 0.0714086 -0.107534185 -0.09114486 -0.27463278 -0.023244174 -0.07941602 -0.036054805 0.2511932 -0.06634146 0.28463858 0.13893946 -0.12341183 0.27816007 0.17553882 0.050965164 0.2071367 0.16660684 -0.3496525 -0.026196958 -0.055003148 -0.34429243 0.05709968 0.082012594 0.052715145 0.2015521 0.1133355 -0.09766237 0.10982102 -0.33225387 -0.14122987 0.13970682 0.20994322 0.06898841 -0.08210702 0.12377418 -0.24639392 0.09039969 -0.018234707 -0.03822129 0.023835687 -0.15861109 -0.050322216 0.013780614 -0.24786691 0.17837559 0.39677188 -0.41455713 0.19833969 0.08030961 0.1096684 0.06725249 -0.16029143 0.07842298 0.0005923212 0.109036386
pnK47qyAYLs 0.19368708 0.24407375 -0.09840925 -0.015634254 0.09851864 0.0290478 -0.1644449 0.035618242 0.041065123 -0.30095348 -0.53652734 0.02352089 0.11706065 -0.11789274 0.15473755 -0.2619508 0.29092443 -0.5102307 -0.5806665 0.24991155 -0.014981729 0.016203875 -0.3665442 -0.13736401 -0.019796152 0.10254261 0.05800215 0.1717221 0.3086801 0.29061645 -0.071715504 -0.25569588 -0.036571134 -0.068557374 0.2442331 0.043950073 0.17648225 0.13206407 -0.21949208 -0.0077232528 -0.19211473 0.23582108 0.11207077 0.09694161 0.07094312 0.107531495 -0.23951861 -0.08662336 0.3324852 0.16540389 0.12689322 -0.20502548 -0.19798984 0.3003752 -0.26566738 -0.10643107 0.1313804 0.23629732 0.05573547 -0.13581869 0.19861747 0.19031459 0.10158029 -0.18327342 0.092709325 -0.15828344 -0.16801867 0.06194335 -0.009430471 0.11800612 0.30626586 -0.024897687 0.27309835 -0.08823878 -0.11972385 0.18735524 -0.26057902 0.1098417 -0.23589318 -0.00021173785 -0.056845907 -0.0100436285 -0.120429 0.13386233 -0.20548743 -0.14393033 -0.021820275 -0.117853016 0.13311112 -0.011271938 -0.10377533 0.03779371 -0.12332664 -0.052315697 -0.23267895 0.20023692 -0.1881059 -0.0022397444 -0.1152411 0.07218246 0.12251768 -0.30769622 -0.016128182 0.08402234 0.09145416 -0.107685365 -0.023243148 0.028103644 -0.42440695 -0.0796483 -0.2089372 -0.024198474 -0.039542537 0.12507454 -0.06241107 0.07202343 -0.04081664 -0.13774765 -0.10900262 0.2179356 0.02018784 0.027972987 0.087001584 0.22666168 -0.043137416 -0.057037964 0.1720618 -0.045540497 0.06464846 -0.03057709 0.09167868 0.054262754 -0.08062607 -0.12884977 -0.21748973 0.07955019 0.049496073 -0.05119032 -0.09422544 -0.30766466 -0.059634317 0.25135228 -0.07038171 -0.27047965 0.104539715 -0.28218058 -0.13134082 0.16458942 0.1768811 -0.25568008 -0.025288042 0.024020433 0.20703769 -0.08751378 0.23319946 0.018334512 -0.11112283 0.28687885 -0.050544716 0.0233827 -0.048613925 0.028564638 0.22752143 0.0972071 0.037248984 0.10421416 0.04528045 -0.19414297 0.1325839 0.11199183 0.06558853 -0.054376896 0.077206284 -0.16719553 0.076184645 -0.099061355 -0.23968884 0.12581974 0.018774321 0.120846964 -0.017375382 -0.29713902 -0.014079471 -0.013834605 0.006615532 0.2973106 -0.1603377 0.024872353 -0.15614712 -0.36472797 -0.23930386 0.10626455 0.043581776 -0.044579335 -0.06709209 -0.13628283 0.20690173 0.20686512 -0.046746034 0.19525348
3tZwx5GEJLA 0.12487813 0.19865224 -0.028995866 -0.11265923 0.53539443 0.17989382 0.12720019 0.22508813 0.28384867 0.23036623 -0.115817025 -0.32420513 0.018688954 -0.24706617 -0.1499229 -0.26960242 0.24413589 -0.19463128 -0.35889748 0.3167796 0.33131596 0.40319687 -0.15667102 -0.14626165 0.05993994 0.11979059 0.015626999 0.041721858 0.21827263 0.0736327 -0.021869548 -0.45894113 -0.22518972 -0.20346443 -0.12176554 -0.021560175 -0.08270788 -0.0016617182 -0.18093641 -0.05537296 -0.23283648 -0.054697804 0.102491215 0.05121418 0.31155953 -0.17975602 0.07402563 0.0662486 0.19820271 -0.031537406 0.17669725 -0.42571497 -0.27005166 0.3830936 -0.12762254 -0.23005562 0.15171531 -0.079405695 0.1571821 -0.3379369 -0.11906997 -0.09028217 -0.11435745 -0.21038707 -0.54464114 0.27906135 -0.22970736 0.24521911 0.0077818804 0.37627614 0.4620669 0.37567195 0.22777614 -0.24675031 0.09674909 -0.04711217 0.08102945 0.27937886 -0.03321674 -0.087871335 0.47232327 0.24501373 -0.34810874 -0.033477213 -0.042603046 -0.38487756 0.055458494 0.115968995 0.3644422 0.07685977 0.00792605 -0.12087412 -0.38649398 -0.08489058 0.3888952 0.37758008 -0.23779783 -0.24667004 0.02533319 -0.2094674 0.091909006 0.09367229 0.25920862 -0.0035471285 -0.29303944 0.33889776 0.062220264 -0.21493943 0.14503443 0.22218864 -0.04832112 -0.17241676 -0.016807854 0.10310677 0.06593603 0.15388873 0.19082913 -0.059866596 -0.04781636 0.040871397 0.01576362 0.12790042 0.33760446 0.07490853 0.32758582 -0.272297 0.09567846 0.12395255 -0.11903939 0.24654444 0.37318328 0.25101224 0.006229938 -0.17653908 -0.32947692 -0.21054295 0.120891735 0.023147801 -0.057012204 -0.007114986 0.02497153 0.18135177 -0.07604523 -0.121688135 0.11475833 0.047519427 -0.14988571 -0.11254357 -0.048029482 0.24917276 -0.0008208255 -0.015106706 0.1371021 -0.0063195843 0.24445534 0.05478368 -0.20650141 -0.0008240194 0.25001177 -0.09202218 0.1319954 0.058940794 -0.42166275 0.19813004 -0.1615096 -0.42505687 0.13801083 0.010076475 -0.021582011 0.31980398 0.28227082 -0.086167835 0.10558313 -0.10871137 -0.1416936 0.023561038 0.17526773 0.2346615 -0.039916456 0.2469507 -0.12220703 0.05102177 0.049004752 -0.059625518 -0.07028541 -0.09080922 -0.22373548 -0.11511039 -0.1959509 0.08187243 0.27311194 -0.22724608 0.08263503 0.11522706 0.3719354 0.15821506 -0.1156007 0.0722661 0.18557224 0.16598943
kfDBAWpK68z 0.111568846 0.33619928 -0.15168035 -0.17337707 -0.106766984 0.1297029 0.12753892 0.15661365 0.119493484 -0.03439217 -0.082249746 0.102963135 -0.009008772 -0.051388275 0.012038886 -0.13001828 0.06202816 -0.16098985 -0.029751968 -0.13246761 0.13371377 -0.027569678 0.12561828 -0.12166261 -0.1925726 -0.1525705 -0.13966906 0.10730128 0.2378327 0.056754623 -0.023520142 -0.061749533 0.1230644 -0.30647165 -0.08995324 -0.17661962 0.074183166 -0.2796599 0.015250367 0.109341614 -0.05604452 0.049473196 0.031118145 -0.22647409 0.14091761 0.02264217 -0.010654823 0.013346255 0.122556835 0.037375525 0.1658156 -0.0006422057 -0.18745531 0.13317807 -0.24794146 -0.022821978 0.12302003 0.073822096 -0.177678 -0.09886452 -0.10075433 0.033586543 -0.028204814 -0.15698695 -0.11092925 0.043018945 -0.09714314 0.13034165 -0.10224688 0.03063702 0.0852076 0.0034887071 0.31869578 -0.3202021 -0.06697379 0.009954376 -0.07878947 0.23515023 0.106498085 0.07110234 0.17812322 -0.14705919 -0.2744004 -0.26567423 -0.046328828 -0.27487603 -0.09842605 -0.06650891 0.040465772 0.12402304 0.027990563 -0.081542015 -0.6970943 0.081590325 0.051790252 0.11685015 -0.04626219 -0.10044848 -0.232565 0.052361477 0.12870301 -0.04871703 0.11715956 -0.015671702 -0.0651896 0.13462965 -0.05937749 0.004070668 -0.20957966 -0.15199877 -0.050279275 -0.03271786 -0.31188762 0.102169655 0.10805442 0.07936047 0.12149674 -0.25157768 0.025217833 0.15845208 0.21871558 0.110162705 -0.011042067 0.11113794 -0.016096804 -0.13316338 0.2617409 -0.051170006 -0.18571366 -0.2555448 0.015172236 0.09971994 -0.23390263 -0.07673485 -0.17656845 0.0035853449 -0.034067146 -0.044719793 -0.005651139 -0.11448905 -0.107329495 0.013808878 -0.10013299 -0.07006692 0.11972451 0.006888899 -0.001844447 0.06358259 -0.11828174 0.046623908 -0.10038681 0.08166049 0.08225267 -0.022027317 0.2546036 0.17549911 -0.11774971 -0.04078509 0.106155425 0.10933509 -0.008314637 0.27820536 0.025249984 -0.056071263 0.06912113 -0.09096736 0.09114613 0.065419905 0.07680331 0.220691 0.045954235 -0.09321601 -0.09227962 -0.10447048 -0.051591393 0.10988835 -0.29951215 -0.056145728 -0.15545581 -0.01179645 -0.08812259 0.033288237 0.022790236 0.13564551 -0.0141461715 0.1410479 0.08621759 0.02650082 -0.18593317 -0.16551201 0.015348484 0.006037062 0.026942873 -0.03276716 -0.08627296 -0.13829193 -0.18796274 0.13544543 -0.10291538 0.2639038
3o158TaaQo3 0.15946102 0.48559085 -0.02483488 -0.066846125 0.21406807 0.2506407 0.07808519 0.13266107 0.17711481 -0.08181839 -0.09894263 -0.11068822 0.16954036 -0.016329572 -0.035481546 -0.080050044 -0.18472837 -0.108708285 -0.1564818 0.18460624 0.42665166 -0.011313722 -0.15487774 -0.22465506 -0.2847438 -0.02159332 0.18525368 0.28694317 -0.06169488 0.050441477 0.04060678 0.10089245 0.21549942 -0.29939207 0.0006808862 -0.1956263 -0.29720348 0.38182285 -0.027992226 0.40332472 -0.510522 0.4455217 0.16210823 -0.26132596 -0.30414057 -0.041090164 0.1567073 0.10550264 -0.09874204 0.037735842 0.1198416 0.059265018 -0.105216905 0.100798056 0.21085042 -0.2517712 0.28811166 0.1396858 0.07042909 -0.11966099 -0.23907994 -0.29060885 -0.06281284 0.06529503 0.27044973 0.24119517 0.050382636 0.088174306 -0.027719444 -0.014372442 0.53443295 -0.011674006 0.5103525 -0.39224282 -0.07307832 -0.10968061 -0.22144246 0.099127024 -0.028405981 0.29872105 0.06002551 0.17073399 -0.13433017 -0.05229349 -0.0740976 -0.20055293 -0.12716456 -0.24534097 -0.0070526246 0.1622733 0.2558787 -0.1306251 -0.37968838 -0.06455657 0.34955534 0.08468434 0.2430463 0.0026681623 -0.49652308 -0.25996977 0.1537496 -0.10096783 0.23996665 -0.27165902 0.33720234 0.47856763 -0.07948854 0.008040996 -0.053493064 -0.22593057 -0.10273183 -0.038637202 -0.28205046 -0.14678405 -0.19029401 0.12595673 -0.107938714 -0.2554719 -0.38106534 0.09457441 -0.14816059 -0.068793796 -0.07387962 0.18677387 -0.056690246 0.11644153 0.7430057 0.3329143 -0.18735021 0.15221585 -0.3488638 -0.06516156 -0.11947305 -0.10593098 -0.11365463 0.1565432 -0.08388714 -0.22445631 0.015582349 0.096804425 0.12430675 0.16009687 -0.32309446 -0.53929216 0.16697018 -0.14184019 0.13990732 0.1946827 0.27460405 0.27040306 0.26982296 0.11666541 -0.08026961 0.15120442 -0.021850929 0.10258439 -0.073446296 -0.32395208 -0.0074471156 -0.23540904 -0.25196362 0.3378921 -0.07375375 0.38363442 0.1380135 -0.15412344 0.1980344 -0.23669833 0.030492734 0.3000994 0.28670532 0.21670425 0.015603585 -0.31746578 -0.60071707 -0.51593 -0.2697921 -0.155879 -0.08497661 0.21348237 -0.29191577 -0.17569272 -0.09703765 0.12045957 -0.37467226 0.7300454 0.13175654 -0.010147868 -0.22909454 -0.6276335 -0.2722259 0.24435376 0.103614755 0.04790969 -0.07494554 -0.08873166 0.09087439 0.30003873 0.044568438 0.19218566
cAgFDXGcBPv 0.2655963 0.1263268 -0.30198863 0.04846178 0.07117594 0.12469223 -0.062452957 0.1547338 0.144958 0.0041610226 0.06331643 0.25309107 0.057880245 -0.24428488 0.07231016 -0.16256526 0.17559415 -0.09305168 -0.15195839 0.12330263 0.30492732 0.10699891 -0.0779947 -0.31726635 0.09378719 -0.13927048 -0.17853074 0.38182595 0.32286215 -0.18211658 -0.017757587 -0.18937969 0.029183129 -0.079980135 0.17612188 0.21327862 -0.004773767 0.006191079 -0.21752213 0.072118826 -0.16748747 0.30026785 -0.05377484 -0.10721863 0.0030070308 0.24059892 0.057525918 -0.16213788 -0.023299487 -0.001085878 0.19659357 -0.025541564 0.010690551 0.05616673 -0.059523374 0.06958095 0.2742315 0.22965708 -0.12682474 0.17921342 -0.056215774 -0.098942176 -0.04745973 -0.21206139 -0.16563377 -0.14185745 -0.12695062 0.17634726 -0.07376562 -0.016535962 0.13141148 -0.0330936 0.15745305 -0.43209103 0.13504912 0.16206585 -0.1127079 0.12349149 0.111290075 0.05789887 0.2930146 -0.12696387 -0.23456046 -0.19057149 -0.2113797 -0.26115614 -0.13109514 -0.3052201 -0.15204091 0.2019702 0.13030659 -0.20639533 -0.39509472 -0.028442431 -0.10486349 0.06799462 0.029794972 -0.028132815 -0.16180824 0.13224223 0.14967848 -0.08136624 0.04853426 -0.19764702 0.25599808 0.11690262 0.073545374 -0.085277066 -0.14308903 0.112982355 -0.047184423 0.20449951 -0.24309446 -0.046573367 0.20227477 0.21409793 0.24522302 -0.4060081 0.14639373 0.06614334 0.09929403 -0.17323162 -0.08761212 -0.081395574 -0.023304382 -0.031690344 0.10597374 -0.28615996 -0.12701117 -0.17202179 -0.23905058 0.21166077 -0.16985162 -0.16402744 0.011863548 0.0105859125 0.002382235 0.097861655 -0.1642883 -0.24268888 0.04162993 0.13873683 -0.080484614 -0.17516871 0.06413027 0.13507731 -0.24535462 0.18676884 -0.044083267 -0.07051835 -0.030877199 0.16818966 -0.14742857 -0.13982365 0.15406847 -0.022677429 -0.024511367 -0.11658798 0.03497185 -0.17635709 -0.101252824 0.23966478 0.20694599 -0.45541406 0.17609817 -0.11905353 0.11626383 0.078562774 0.17207381 0.38509986 0.2288414 0.11517993 -0.1385022 -0.08537853 -0.057531178 0.054205 -0.16285054 0.14511526 -0.18174177 -0.015943842 0.11538962 -0.017244762 0.22845864 0.020253532 -0.031593826 0.38426232 0.07280496 -0.056260195 -0.20299177 -0.124563545 0.031240728 0.12615274 0.110955946 0.19720267 -0.09157071 -0.32054988 -0.2627909 0.2747915 0.0010429929 0.1750667
FLbyuydOpTh 0.11755579 0.20429732 0.15063599 0.09155944 0.3151482 0.04709796 0.47656512 0.23323083 0.17949317 0.08704694 -0.27325732 -0.4780897 0.30516332 -0.22946334 0.24729596 0.27268842 -0.045663025 -0.11726805 0.24744919 0.015856477 -0.11519785 -0.14352334 0.24908139 0.068663865 -0.22512747 0.4517689 -0.1650548 0.1916928 0.10008912 0.14113818 0.16183522 0.4192751 0.28765377 -0.09155561 0.21781676 0.27342412 -0.24881427 -0.0748372 -0.06973533 0.34368443 -0.13183145 0.43972263 -0.09893212 0.4423018 -0.16050507 -0.050729915 6.32477e-06 -0.142341 -0.02211868 -0.2999437 0.22537181 0.1771856 0.35182095 -0.10660638 0.3831302 -0.24835834 -0.004236914 0.18642025 0.03330019 0.1166817 -0.024578242 -0.030301392 -0.21185164 -0.015931161 -0.012843413 0.57880324 0.37708476 -0.3953596 0.119409725 -0.16620469 0.20905393 -0.27137843 0.43996274 -0.90926844 -0.14974788 -0.20523092 -0.38694963 -0.65019774 0.10672752 0.16186057 0.12116717 0.24342272 -0.31946522 0.23957181 0.06922791 0.18077339 0.013208458 0.04807938 0.4029736 0.2342129 0.13341004 -0.035931453 -0.06622647 0.10290812 0.4258974 0.08318176 0.29032797 -0.30649796 -0.52113694 -0.15095042 -0.14344013 -0.104198955 0.4968942 -0.10443841 -0.021225533 0.2650094 -0.64426464 -0.26259503 0.07136976 0.12951714 -0.23882994 -0.027724497 0.038368504 -0.32483974 -0.2895935 0.5373782 -0.033640124 -0.062292274 -0.51420695 0.124163225 0.27701655 -0.26602688 0.17271303 0.038880948 0.19346203 0.09198109 0.34957665 0.3262148 -0.5058669 0.015012684 -0.47625616 -0.08683695 -0.06691855 0.16309461 -0.35635346 0.47807792 -0.2871413 0.054421064 0.020025956 -0.02608545 0.2875003 0.4155712 -0.14896962 -0.09171345 0.45259133 -0.21114874 0.29398704 0.29091775 0.60690117 0.31507236 -0.20803702 -0.3861049 0.50361246 0.13347942 -0.25400257 0.20544377 0.109159335 -0.2898658 -0.493704 -0.1845846 -0.10711479 0.2535471 -0.50867885 0.20883827 0.20537588 -0.13093086 -0.032841433 0.25065178 -0.34459555 0.14867406 -0.17548294 0.40230885 -0.09241893 -0.63980997 -0.2641617 -0.09129473 -0.03979691 -0.37856764 -0.46404576 -0.43447077 -0.18172215 -0.03846999 -0.3062971 -0.080909625 -0.111682415 0.4649646 -0.061034795 -0.59320235 0.29813433 -0.18515496 -0.052577816 0.16014627 -0.050373282 0.40168166 0.0439921 0.0748515 -0.28986228 0.56364894 -0.02327788 -0.59514683
Y7taXql2LEx 0.28662127 0.32762206 -0.12921403 0.08301394 -0.09923516 0.16142105 -0.16762643 0.09628213 0.17023237 -0.3042316 -0.3565439 -0.3512696 0.26619497 -0.46716028 -0.04657279 -0.054960765 0.047083307 0.07134202 -0.30103746 0.24914995 0.10228915 -0.2475012 0.18612495 -0.10633181 -0.33148128 -0.19013615 0.4338885 0.18108732 0.25902438 -0.016925262 -0.113718845 0.17296155 0.15174218 -0.26598424 0.22790863 -0.029068902 -0.11044688 0.065189235 -0.050290637 0.4780554 -0.21790211 0.120711446 0.118350364 0.04894701 -0.34727725 0.06310926 0.17902237 0.27767172 0.013641207 0.046554644 0.3168567 -0.01685461 -0.024342105 0.14898376 0.38549605 -0.14215852 0.2535344 0.44530705 0.032054726 0.0052179694 -0.20885839 -0.21952628 -0.22586927 0.22887877 -0.03600345 0.15620422 -0.04313005 -0.16611134 -0.0048104557 -0.27275488 0.3667299 0.19317687 0.68301815 -0.13190952 -0.087217346 -0.35672227 0.030077968 0.0612109 0.3776412 0.112574376 -0.104197696 0.08542747 -0.60821885 -0.17816022 0.10092871 -0.10513143 -0.19080743 -0.13394442 -0.18931626 -0.0744687 -0.02905401 0.020078229 -0.47757375 0.035091575 0.4514045 0.28628403 -0.25808313 -0.07063054 -0.24546504 -0.18039614 0.42922086 -0.109662056 0.3483808 0.06604714 0.5463911 0.37699053 -0.052152842 -0.08672477 -0.037354246 -0.09650028 -0.19206376 -0.11035867 -0.32386655 0.06598548 -0.2398357 -0.04929454 0.04605682 -0.36204034 -0.33559757 0.039037995 -0.023459546 -0.16300967 -0.21882406 0.27475098 -0.073531486 0.114932135 0.46710733 -0.10118872 -0.36300927 0.049379025 -0.102279395 0.05465954 -0.2563839 -0.08203579 -0.38862905 0.36221722 0.06701366 -0.058825903 0.006741713 -0.16543983 0.19460036 -0.04264698 -0.38557896 -0.6118426 0.097136736 -0.14335923 0.20200773 0.16426359 -0.06360247 -0.005638112 0.2912078 -0.14932874 0.09193344 0.1880273 0.044293586 0.30634138 -0.24857698 -0.16092701 -0.20964484 -0.1647545 -0.043943357 0.099507034 0.13324602 0.06521211 0.18635683 0.14036709 0.23096175 -0.17808522 -0.016693188 0.36352572 0.4696436 0.23621215 0.011769901 -0.5121153 -0.1812673 0.008017503 -0.3527769 -0.25960842 -0.15790802 -0.09889238 -0.46579674 0.005664623 -0.038116902 0.1204605 -0.5617066 0.43213052 0.22696878 -0.05662899 -0.406527 -0.61425966 -0.11082977 0.19376487 0.07025906 0.38310885 -0.10129807 0.12598579 -0.105328076 0.21712586 -0.040359117 0.14224055
Us4jFxSlrBn 0.2218112 0.06282888 -0.4849558 -0.052304115 0.0958344 0.15790628 0.023687212 0.00079952984 0.102587804 0.013537664 0.061100297 0.15880221 -0.013179228 -0.2606538 0.010488267 -0.07883368 0.09853474 -0.19813699 0.06161992 0.14177437 0.30166084 0.015742116 -0.05837759 -0.2621133 0.13339502 -0.1268052 0.058991022 0.048186675 0.15545736 0.15058474 -0.07538905 -0.0089389 0.043807622 -0.19777611 -0.075944 -0.034014724 0.0041219485 -0.01335079 0.072069295 0.0011264655 0.05326412 0.06587894 0.057357676 -0.11931481 -0.044108856 -0.04028714 0.3100031 0.048100743 0.11584488 0.095148355 0.19337523 0.09520382 -0.08375755 0.21036151 -0.16532947 0.09381393 0.3498754 0.22085783 -0.08271751 -0.10263769 0.003060335 0.026255153 -0.14176783 0.018651728 -0.004261166 0.35887742 -0.022128033 -0.0014503525 -0.0016136841 0.13260202 -0.13159664 0.056218747 0.3049573 -0.28081357 0.068030104 0.11045128 -0.22294609 0.21442915 0.16806167 -0.14191402 0.14594685 -0.0899392 -0.16980606 0.09410294 -0.04122164 -0.24833861 -0.0053776386 -0.15158756 0.17288233 -0.01530409 0.05523526 0.024331953 -0.54203033 -0.072452754 0.24549362 0.27827153 0.12542486 -0.22965549 -0.2465541 0.21695475 0.12552871 0.03647603 0.05029323 0.14099441 -0.0821426 0.040449277 -0.21418282 -0.08337107 -0.14184693 -0.16201818 -0.26950526 0.19931978 -0.29858574 0.25067484 0.15075873 0.18291168 0.08716019 -0.23878194 0.08345931 0.17302938 -0.017590225 0.2662778 0.030647757 0.0026920915 -0.18571846 -0.087881275 0.23468645 0.120232284 -0.21859966 -0.18502171 -0.24357148 0.20695919 -0.14896254 -0.09163102 -0.11540318 0.018454945 0.024421982 0.17468344 -0.17578301 0.040280584 -0.062106676 0.044084374 -0.053996958 -0.073924944 0.0017517619 -0.029979883 -0.039509527 0.33353046 -0.19217338 -0.025350234 -0.016925367 0.06292626 -0.06282917 0.17576283 0.061735626 -0.046896853 -0.017245835 -0.14893652 0.070381865 0.04221613 0.010962695 0.102497056 0.017408568 -0.08788027 -0.028841134 -0.05147235 0.19189467 0.056836758 -0.061845098 0.12168829 0.112777315 -0.06697947 -0.02923522 -0.32554474 -0.21106358 0.23323749 -0.20415422 0.14172228 -0.25530034 0.23553444 0.045747478 -0.1100703 -0.015341346 -0.10100765 -0.14272097 0.05074722 0.079359554 -0.046544377 -0.050557997 0.08776074 0.02191215 0.09527112 -0.060090188 -0.013977528 0.07289803 -0.15476412 -0.13631181 -0.062485144 0.14091055 0.041284766
uN6v2g0I8cb 0.19046375 0.54499555 0.08570151 0.13324286 0.2927426 0.30988434 0.2614823 0.32461324 0.1384 -0.39356846 -0.1550996 -0.15930355 0.5730638 -0.13190992 -0.002681366 -0.2635642 0.18164204 -0.040500976 -0.3788977 0.16706698 0.29605922 0.40587786 -0.108285256 0.039148465 0.30186263 0.20117342 0.049864665 0.055186827 0.58022064 0.040185582 -0.0018823086 -0.13924716 0.18146333 -0.17878334 0.18713209 0.27176416 0.022185719 -0.28134364 0.18915744 -0.04366542 -0.11347393 -0.39882082 -0.16098516 -0.19945751 0.0764034 0.089361064 -0.30082107 0.011303721 -0.023039045 0.08932325 0.07695251 -0.2675766 0.015065525 0.03642845 -0.1705371 -0.011299171 0.12332123 -0.0773246 -0.067782655 -0.33225322 -0.2358331 0.1150042 0.0053857835 -0.14856012 -0.2044944 0.15231007 -0.2114837 0.07471928 -0.025112417 0.1682689 0.19098087 0.22954868 0.2651436 -0.24608058 -0.05721116 -0.029331988 -0.14836746 0.3149042 0.03159995 0.050679516 0.20981495 0.06042699 -0.14180683 -0.24129528 0.17125341 -0.18238941 -0.052259117 -0.28524 0.060319364 0.025418414 0.10961474 0.10518956 -0.3545859 0.06019832 0.16129158 0.021927014 -0.20369916 -0.47022432 0.04105717 -0.06355113 -0.013632483 -0.13755412 0.051918183 0.17022593 0.13027856 -0.25188974 -0.18280928 -0.14854303 -0.09873591 0.16366884 0.23828876 0.15397397 0.016998874 0.26962906 -0.2591771 -0.04286343 0.26939958 -0.08977472 -0.09325127 0.10899125 -0.033079624 0.005061694 -0.09660917 0.14427985 0.045709133 -0.1909835 -0.10218528 0.03679494 0.07510974 0.004988628 -0.06404555 0.33001542 0.086372115 -0.034220673 0.16995655 0.19011258 0.05007039 0.20430638 -0.017652793 -0.23230253 -0.10728561 0.06977917 -0.19741109 0.21752708 0.26992583 -0.1735213 -0.052831654 -0.23225735 -0.19032797 -0.00611596 -0.30264658 -0.004037722 0.15067706 0.082949445 0.3346455 -0.009285801 -0.29770392 0.070341304 -0.14956981 0.26340088 0.065735586 0.18195271 -0.06094581 0.27519923 -0.0561064 -0.1581241 -0.16126618 -0.15169144 0.20877048 0.08661337 0.13889943 -0.14147735 -0.13957487 -0.60440344 0.19206761 0.16258982 -0.1643949 0.2263565 -0.045719042 0.115069576 -0.15298651 0.10178751 0.032345995 0.072072566 0.017459933 0.29983562 -0.023165597 -0.13805486 0.013364491 0.02788298 0.11788885 0.09978514 0.0023245066 -0.07410311 0.2330574 0.2733852 -0.2543545 -0.012485341 0.18401724 0.10418536
d8qen9QJQzE 0.025214337 0.05752819 -0.06317183 -0.11751241 0.045976494 0.3317722 -0.014593804 0.20341155 -0.04492489 -0.23956819 -0.2075158 0.05015076 0.08850237 -0.0858555 -0.032519564 -0.065954104 0.06884015 -0.10203329 -0.04282533 -0.060745753 0.1332973 0.20888476 0.06570421 -0.15517244 0.21881576 0.02199917 -0.15726465 -0.2214508 0.13952206 0.21194103 -0.1246566 -0.015483928 0.1270447 -0.08679626 -0.048243597 -0.19599967 -0.15344007 -0.12257102 0.06934844 -0.018204175 -0.006296457 0.07783862 0.0724675 -0.18621357 -0.18522713 -0.26321712 0.043552864 -0.0950511 0.0699785 0.1820732 0.08263964 -0.12137668 -0.15131219 0.16577211 -0.22740923 -0.086648 0.38756025 0.11864219 0.021884674 -0.3241002 -0.10087081 -0.0256379 0.07748609 -0.13874051 -0.24128582 0.28755233 0.10478556 0.0033334019 -0.25807178 -0.012613085 0.046927772 0.1625619 0.43383485 -0.061829995 0.025988413 -0.050409954 -0.124357656 0.13955653 0.012164436 -0.0009618933 0.07498462 -0.087185435 -0.3696211 -0.117740735 -0.1641272 -0.20933615 -0.15402456 -0.19210427 0.10254905 -0.023744624 0.1653737 -0.0021237438 -0.30555895 0.05469425 0.18263584 0.11442016 -0.0009785785 -0.38433057 -0.2514633 -0.06840694 0.3256337 -0.118584774 0.0111103095 -0.041168615 0.2063168 0.26424277 -0.28573483 0.046207268 -0.13234968 -0.065367386 0.016724646 0.05425308 -0.23359169 0.24619338 0.12549675 0.00038766256 0.15017977 -0.12946504 -0.08715238 0.2800623 0.02986217 -0.019726994 0.055377673 0.07473847 -0.070328176 -0.023795623 0.19813885 0.02480423 -0.21461233 -0.02255307 -0.09927741 0.24799794 -0.10010002 -0.1280216 -0.0026248388 0.17148969 0.07713439 0.099467866 -0.23205306 0.037320968 -0.056204565 0.014929537 -0.040306974 -0.009071886 0.038829077 0.029482521 -0.052852847 0.21685001 -0.32727596 -0.028458944 -0.17198169 0.063013636 -0.088308826 -0.061386928 0.25976625 -0.026811028 -0.16635592 -0.20913662 0.06323649 0.19312522 -0.12640809 0.20653035 0.02217584 0.029733868 0.000955163 -0.1493588 0.14582574 0.056823686 0.3233234 -0.09876133 0.089138694 -0.11354158 -0.11827491 -0.14169036 0.016616965 -0.004576355 0.006048025 0.08088272 -0.15132464 0.1313755 -0.2510173 -0.22701643 -0.00075788447 0.14548461 -0.15523659 -0.008218153 -0.064245485 -0.1166976 -0.2303262 -0.15447272 -0.125364 0.08105953 0.13024345 0.07344783 -0.03584449 -0.1434969 -0.032852035 0.08394112 -0.0504762 0.23431347
gkFENWS6CI8 0.23316225 0.39671788 -0.24650641 -0.36162877 0.17242697 0.12376671 0.019508004 0.3516548 0.31732368 -0.08715929 -0.14190269 0.13222459 0.07314213 -0.2847455 -0.014957927 0.0034324508 -0.049330678 -0.21933484 -0.18137735 0.14822274 0.22129011 -0.045259293 0.016190527 -0.4525319 -0.14964099 -0.1924023 -0.29825214 0.1665361 0.2363272 0.18901837 -0.08455571 -0.18952967 -0.0638461 -0.2754042 -0.0026094003 -0.21294424 0.12238127 -0.12745035 -0.21397543 -0.0061288844 -0.07968418 -0.09494013 0.13240989 -0.27117553 -0.1908092 -0.14925463 -0.11462196 -0.08565098 0.25745633 -0.06117888 0.110968605 -0.023600284 -0.033917725 0.080909476 -0.15831734 -0.10309187 -0.08271608 -0.03414352 0.028223619 0.06429549 -0.08029001 0.007046571 -0.2095812 -0.20572145 -0.0780874 -0.063300185 -0.18930294 -0.061818816 0.008158296 -0.12968178 0.03295416 0.15915003 0.06630645 -0.2728417 -0.007208905 -0.076244295 0.0012622182 0.078149386 -0.1183609 0.06731665 0.22215295 0.0031899484 -0.31825736 -0.25870833 -0.13363357 -0.11552784 0.030021476 -0.042966798 0.002890249 0.09799302 -0.06193753 -0.0054608346 -0.2330736 -0.07360422 -0.035214756 0.050515227 -0.057271764 -0.050198197 -0.2687767 0.04133441 0.24146496 -0.19415483 0.09147187 -0.056806654 0.012930336 0.20472063 -0.06607235 0.029316973 -0.12582205 -0.11536189 -0.032207943 0.11974943 -0.34433067 -0.024192704 0.029865475 0.022253295 0.018237937 -0.17683671 0.031695124 0.061681975 0.08829683 0.07674864 0.15576062 -0.045667376 0.092522375 -0.039943807 0.2106968 -0.0027574166 -0.092138536 0.020624133 0.16377756 0.1964824 -0.060058597 -0.12007545 -0.06763815 0.09001255 -0.019636348 0.074946135 -0.07803604 -0.20140204 -0.09388024 -0.043692205 -0.030264994 -0.23429623 0.10219767 -0.18440862 -0.037822574 0.07100526 0.059125867 0.011058136 0.06717603 0.054356065 0.08068392 0.12685828 0.3254107 0.07898385 -0.064541265 -0.058457647 -0.097615756 -0.0010320689 -0.016425345 0.2557314 0.11815671 -0.109508656 0.005479522 -0.03164166 0.11417116 -0.056432832 0.03380081 0.13029332 0.06721226 -0.06090697 0.083598636 -0.078553624 0.08404274 -0.042585198 -0.13208118 -0.06277288 -0.21775216 -0.0873153 0.006392017 -0.13523474 0.09607464 0.15613978 0.01933313 0.055411596 0.004467628 0.016175743 -0.2303336 0.056228064 -0.086293146 0.047059987 0.23225278 -0.025291467 -0.19319923 -0.08478558 -0.23735407 0.30514893 -0.17884105 0.38166752
n2ZqsXSmyE2 -0.064174466 -0.034928072 0.22146817 -0.14404444 -0.23900986 0.07537233 0.07574711 0.066101275 0.25480556 -0.14433314 0.060732648 -0.0115546 0.030833896 -0.41437468 0.030620683 0.0015210018 0.13454656 -0.025836723 0.028729063 0.13123214 0.38904035 0.0016874197 0.05805502 -0.27290598 -0.17650537 -0.18983714 -0.14680111 0.25371715 0.22457026 0.35799354 -0.07016701 -0.2865238 0.39062956 -0.36572942 0.089920625 -0.042639617 0.07615614 -0.21280825 -0.07654578 -0.25766602 0.038340498 0.1417958 -0.021658096 -0.26464796 -0.21719137 -0.083360836 -0.1721755 -0.12214072 0.03828922 -0.12737629 0.13543925 -0.2061249 0.0059016375 -0.074783795 -0.24116205 -0.23579468 0.30858558 0.21115595 0.10886581 -0.022231175 -0.029474687 0.007415007 0.18104468 -0.14332442 -0.02830434 -0.09891997 -0.10155847 0.11009604 -0.13952917 0.08713387 0.051070396 0.30152664 0.35066342 -0.3001753 0.21724948 0.25386828 0.017163457 0.2110387 0.17601395 -0.050137345 0.15271959 -0.026979204 -0.46120003 -0.124419086 -0.050587516 -0.23541884 0.059896015 -0.34955248 -0.07800697 0.20130688 -0.01956849 -0.002383134 -0.56810147 -0.20972547 0.117941804 -0.12390014 -0.030824237 -0.14278549 -0.12653996 -0.07522376 0.18569897 -0.14116944 0.19660823 -0.08633363 0.08792821 0.05108146 -0.12245861 0.043771304 -0.03735528 -0.2078112 -0.25665513 -0.19010958 -0.2159971 0.030135216 0.09734438 0.08392729 0.107364535 0.09546187 0.11303004 -0.061022844 0.24294026 -5.6428784e-05 0.1398119 0.107153274 -0.0882222 0.029762302 0.17825304 -0.1303448 -0.08648341 -0.10851675 0.020152051 0.104512475 -0.04480701 0.09540837 -0.023993222 -0.038984895 0.030230235 -0.013065823 -0.18960729 0.081379004 -0.20008056 -0.1137087 -0.13453855 -0.21039195 0.08410069 -0.39728415 0.029291177 0.49612722 -0.063482836 0.119490206 0.11371913 -0.06865208 -0.05834349 0.15806611 0.5112173 0.29030603 -0.084507816 0.042666357 0.06613534 0.07955979 0.11346338 0.17610136 0.17458828 -0.17439075 0.19554433 -0.0024581717 0.08069842 -0.003620806 0.07536421 0.04636581 0.2283156 -0.033905547 -0.35221872 -0.021170396 0.16542564 0.0682913 -0.14865613 0.0629758 -0.20438394 0.05666969 -0.19890873 0.0033370832 0.21000263 0.2538524 0.032662146 0.28935558 -0.09937474 -0.04270604 -0.32612017 -0.08927098 0.16606624 -0.07850297 0.027701842 0.10876547 -0.06743006 -0.021104261 -0.124244645 0.09627486 0.009397112 0.12806873
rgaPBjGyeeJ -0.08553909 0.120836526 -0.16200294 0.12103197 -0.1923111 -0.04341807 -0.035732515 -0.044312023 0.21101092 0.2987286 0.31135467 -0.12922737 -0.12202746 -0.3547518 0.05751852 -0.11042554 0.3705536 0.18683915 -0.035619695 0.30391163 0.3930483 -0.02227394 -0.012260174 -0.19581087 -0.12875119 -0.13372459 -0.23208684 0.2288163 0.05170967 -0.17752966 -0.25355488 -0.26776028 -0.11265805 -0.15002291 0.124060094 0.06672307 0.0067745666 -0.24828736 -0.15280686 -0.0769173 0.019222004 0.22939518 0.10255489 0.052045885 -0.10917937 -0.30855775 -0.06863226 -0.1575205 0.06361503 0.15093836 0.012317948 -0.0747377 -0.12049439 0.22579278 -0.2645075 0.16629407 0.35660776 -0.11864891 0.03438187 -0.09937516 0.08832779 -0.018551266 -0.14036888 0.10013413 0.042856384 0.074634686 -0.11443328 0.0641014 0.088645354 0.123813584 0.13830741 -0.060235787 0.29345015 -0.4162115 0.026222965 0.27178425 -0.41191828 -0.1098674 0.039661158 0.20436488 0.09687766 -0.07401976 0.05008218 0.08111229 -0.25871122 0.0017592316 -0.13334076 -0.13554877 -0.17475614 -0.11038557 0.07059745 -0.00084890425 -0.27874842 -0.098061405 -0.23257048 0.36565086 0.054343402 -0.15487318 -0.31755367 -0.08048588 0.40700924 -0.29409078 -0.21571968 -0.1610824 0.008814754 -0.14756848 0.11470048 0.039586186 -0.14026166 0.1472494 -0.23523062 0.2486225 -0.048300408 -0.09769623 -0.02611866 0.16039853 -0.15759954 0.07653417 -0.13211177 -0.26915503 0.2683734 0.03647139 -0.033408146 0.069817066 0.13683386 -0.14976001 -0.053783312 -0.1837513 -0.15332107 0.00447006 -0.19948386 0.24040379 0.029684657 -0.16085848 -0.18167712 0.1878172 -0.24313211 0.1607586 0.087036945 0.0064150044 -0.11144571 0.12934296 0.16185361 -0.22036782 0.25825644 -0.22348616 0.25060725 0.45617855 0.009331925 0.06356746 -0.04227639 -0.03538643 0.4021555 0.16583242 0.4779329 -0.004705023 -0.041333754 0.062370498 -0.112060964 0.07244029 -0.11671629 0.24562997 0.19282804 0.064931035 0.025208896 0.27780032 0.28981128 -0.20710632 -0.09069952 0.015234335 -0.13676764 0.040613204 -0.23700109 -0.21517734 0.21939789 -0.02582503 -0.45943308 0.03184377 -0.3322101 0.0484674 -0.16629025 -0.014486021 0.16378438 0.30720785 0.033357732 0.3089942 0.060287114 0.033280563 -0.34011802 -0.24232954 -0.036542136 0.28185657 0.12295759 -0.035776973 -0.24869804 0.03843022 -0.01614068 0.14576297 -0.16295767 0.118567765
DJ1iN2jMF3G 0.18677361 -0.058524106 -0.22527528 0.016877664 0.35194033 0.017670415 -0.012903603 0.2557015 -0.14640014 -0.0033843133 0.14234856 0.060855318 0.43322065 -0.24299324 -0.119253926 -0.20504741 0.17372726 -0.18425503 -0.3419905 0.16928747 0.3293088 0.10626628 0.2577645 -0.03703902 -0.21889131 -0.0962029 -0.1693441 0.06788088 0.12689923 -0.00033463325 0.06833499 -0.05833397 0.17412803 0.113051705 -0.19714382 -0.050651282 -0.040102307 0.08234088 -0.102980316 -0.371842 0.018726282 0.08014995 -0.25749555 -0.17115355 -0.101972416 -0.018857863 0.22829086 -0.31954095 0.013939786 0.07436175 -0.19391905 0.19885992 -0.25107393 0.18976782 -0.07633819 -0.063621216 0.14466824 0.15253778 0.008079514 -0.15119153 0.4254294 0.25310278 -0.24640176 0.06608976 -0.32712662 0.3355515 0.08915864 -0.26250815 0.13969406 0.44488785 0.25724018 0.012559073 0.25857958 0.086619735 -0.030701568 -0.30281824 -0.3981336 0.14914753 0.2583704 -0.049771577 0.014995921 -0.16811155 -0.027377225 0.34863058 0.14808372 0.055312052 0.12377395 -0.27033228 -0.15540884 0.05215969 0.05031198 -0.15868142 -0.3869861 0.016685057 0.11231714 0.4705195 -0.1363303 -0.21169285 -0.1314025 -0.14204957 0.20288359 0.15213278 -0.09840936 -0.20164913 -0.105225295 -0.08034487 0.13720936 -0.20425038 0.021473968 -0.39342892 0.26508904 0.4909007 -0.23075488 0.06155749 0.09546589 0.48352835 -0.22562362 -0.06564363 -0.08136518 0.077072226 0.16160543 0.062145106 0.084155954 0.36913443 -0.07470804 -0.16577172 0.17800108 0.10091696 0.10306295 -0.1121078 -0.42912763 0.24943553 -0.2396375 -0.3667725 -0.018062662 0.120371796 0.028083734 0.08704793 0.08067161 -0.15540916 -0.0067116213 -0.041632414 -0.09748189 -0.17800431 0.18944065 0.14660215 0.0851229 0.5887394 0.106392846 -0.058709808 0.10897026 0.09760718 -0.14451359 0.46766764 -0.05330281 0.12697384 -0.21795176 -0.115098864 0.38146237 -0.23648179 0.05852788 0.021521108 -0.30913582 -0.3792874 -0.15281935 0.18820302 0.17756774 0.023752661 0.1338602 0.10577282 -0.24118647 -0.20119026 -0.33108565 -0.08119776 -0.048804883 0.14445592 -0.1469005 0.016805593 -0.16384503 0.026847536 0.14199774 -0.1550465 0.25081432 0.04842105 0.012600163 0.3162759 0.12920795 -0.31795344 0.051786993 -0.02190533 -0.031175746 0.26577467 0.12696439 -0.35158512 0.17283812 -0.3120556 0.20908378 -0.074981965 -0.05633162 -0.09178765
kCgR2ZHccTK 0.115345664 0.20375273 -0.07557594 0.02615606 -0.12244308 0.1522525 -0.17268892 0.053978387 -0.41540286 -0.29051942 -0.12723355 -0.058637112 0.21438573 -0.34642947 -0.053765874 -0.05454931 -0.21724822 -0.19391137 0.159952 -0.28019404 -0.179851 0.1880049 0.04050824 0.026868233 0.113661386 0.29253018 -0.31679556 -0.31128523 0.2773038 0.70611745 0.15845114 -0.3361035 0.144468 -0.2646829 -0.10414683 0.020510767 -0.059140768 0.3463263 -0.12930034 -0.011942492 0.11925326 0.14609578 0.16097046 0.07543313 -0.11947901 0.111780874 0.14850967 0.16183677 -0.23068158 0.22998588 -0.11253842 -0.18810354 -0.016886491 -0.3112151 0.046430115 0.23829074 0.4508229 -0.020679224 -0.18950011 0.15540145 0.025007688 -0.3402231 0.16055068 0.23471186 -0.23760289 0.09765787 0.23233552 -0.08682404 0.063839346 0.16931626 0.3018846 0.05041622 0.24440423 -0.21238339 -0.3216555 0.05087948 -0.3740731 0.043609686 -0.010364927 -0.25216085 0.07994835 0.044014845 -0.06638208 0.008099203 0.37331045 -0.05783545 0.16275054 0.07520068 0.04049005 -0.13466759 0.24758965 -0.03292077 -0.07410126 -0.32522327 0.3377441 -0.05465353 -0.11894487 -0.0979749 0.091485925 0.32316947 0.37664223 -0.20018004 0.041927494 -0.079339966 0.3984582 0.099689044 0.06441531 -0.2418249 -0.0012838938 -0.044237606 -0.08610379 -0.028592838 -0.023568468 -0.19295092 -0.34987712 0.12049476 -0.060344446 0.044098593 -0.08830403 0.16206346 -0.22040516 -0.061013706 -0.052485395 -0.079132736 -0.18097612 -0.15128894 -0.10565168 0.20547904 -0.37731355 -0.45518553 -0.004099917 0.11551787 -0.11435098 -0.0695617 -0.22261025 -0.20570669 -0.08085952 0.11335474 0.2217304 -0.33446485 -0.04945284 0.073123395 0.1300831 -0.07208886 0.6260034 -0.14982106 0.15370148 -0.060185127 0.07854077 0.27634215 -0.010478035 -0.19510916 0.1468063 0.096626624 -0.2171077 -0.093506 0.14957492 -0.013391731 -0.025595037 0.063030645 0.058833983 0.13692579 -0.14710523 0.22113524 0.13598844 -0.20624174 -0.1958449 0.052387655 0.1604988 0.19505692 0.041112088 -0.09175336 0.26424816 -0.32034665 -0.5210513 -0.048064005 0.04349529 0.3302037 -0.42334896 0.03259559 0.28563878 -0.17396797 -0.02474646 -0.030594796 -0.18431355 0.063316606 0.124573395 -0.10906383 -0.022281645 0.02167121 0.029253194 0.093576886 0.1277657 0.076493785 -0.42695788 -0.21547762 -0.16881078 0.2354968 -0.030575467 0.033554066
k5azRvAZXfQ 0.10328578 0.37320405 0.13259786 0.04917946 0.033024736 0.05098337 0.035192847 0.25191295 0.07549541 -0.19114675 0.08535341 0.21394517 0.25098053 -0.18270068 0.046709605 0.03955678 -0.042604305 -0.018555513 -0.035879366 -0.060790576 0.11604269 0.2294486 -0.08909537 -0.16676073 0.07546964 -0.05650502 -0.2014535 -0.08605446 0.22599383 0.19868758 -0.013309883 -0.44092804 0.07469338 -0.1352873 0.019149506 -0.01327425 0.09688399 0.018664438 -0.118610464 0.04179801 0.0039219665 0.056663815 -0.05476919 -0.16732232 0.006763404 0.0058856183 -0.23055221 0.13213323 0.099781156 -0.033724453 0.099589355 -0.19195838 -0.31949866 0.044629913 0.0055543464 -0.32680455 0.17316483 0.20098527 -0.23092209 -0.15035532 -0.060925644 0.07327661 0.031178894 -0.086492844 -0.047075965 0.17889735 -0.0095620295 0.30276808 -0.1320767 0.08814728 0.28161746 0.066724375 0.36659458 -0.21789414 -0.0033522532 -0.013083646 -0.33879468 0.11370156 0.12223598 0.06265267 0.1583286 -0.23297529 -0.19668865 -0.21423139 -0.20537522 -0.020588716 0.035800353 -0.0054280073 0.015203256 -0.048003208 -0.0966308 -0.2164923 -0.24498291 -0.00078451436 0.16556542 -0.07609827 -0.1448937 -0.08347458 -0.250252 -0.033762377 0.19530495 -0.22177269 0.18451631 0.12780756 0.066411704 0.1662283 -0.20252255 0.03427059 -0.26818368 0.032960422 -0.047107488 0.24966744 -0.09658667 0.35124826 0.013043522 -0.008421953 0.14830679 -0.070738755 -0.0116234515 0.036621995 0.15716496 0.15926561 0.044799075 0.19442828 -0.09250985 0.18045156 0.24768716 0.103892036 -0.15547052 -0.32504615 -0.4051816 0.16231039 -0.19724238 -0.12696427 0.13903658 -0.040380355 -0.2735708 0.107848324 -0.1721413 -0.24079977 -0.093473054 0.10487031 -0.075284764 0.09356564 0.22997062 -0.20217724 -0.19651043 0.05046887 -0.039372057 0.0718884 -0.13783765 -0.036240153 0.18344843 -0.04297982 0.06719081 0.18425782 -0.11647155 -0.16608045 0.081501834 0.10051941 0.109875046 0.30348626 0.101426795 -0.13919005 -0.1973251 0.055872194 -0.0007160279 0.07364498 0.1133307 0.13980149 -0.031649403 0.019291954 0.06772637 -0.26025015 -0.09366419 0.01236743 -0.16725716 0.09630996 -0.07345122 0.037837207 -0.25583082 0.006966167 0.17722367 -0.08563496 -0.080346525 0.17599781 -0.20055361 -0.038920075 -0.15980919 0.0516996 -0.1700293 0.060812518 -0.09086532 0.16905685 -0.03483093 -0.1571321 -0.1354374 0.27477026 -0.02834698 0.14330824
50BDwfqs0M1 -0.063908756 0.08926987 -0.020371698 -0.07218312 0.16269518 0.24880402 0.2566282 0.1108675 0.11773181 -0.11975453 -0.19176897 0.11323638 0.28155208 -0.17947133 0.13099195 -0.017361388 0.008698481 -0.024869055 -0.13880616 -0.05389601 -0.06110689 -0.024544826 -0.11786914 -0.27881595 -0.018341154 -0.061656795 -0.038072046 -0.1253301 0.23451975 0.27126077 0.15776603 -0.109247915 0.014733276 -0.32661316 0.040627062 -0.070907235 -0.20853521 0.013914611 -0.31214973 -0.115435004 0.04416273 0.2590777 0.14480184 -0.2738644 0.13604222 -0.2050316 0.0199131 0.14030083 0.14038515 0.014736064 0.14534 -0.06322682 -0.14298786 -0.003262059 -0.3012775 -0.4083889 0.27770656 0.22047506 -0.06943076 -0.08928172 -0.18365194 -0.056670547 -0.14285251 0.0071305945 0.10491101 0.33770624 0.025288118 -0.016649026 -0.119138114 0.13400915 0.2376814 0.15104708 0.24307795 -0.3664991 0.18349366 -0.13851087 -0.0836734 0.0682239 0.055192363 0.22512813 0.07196346 0.21174628 -0.3429165 -0.19055171 -0.22800654 -0.32777417 0.097487584 -0.09164237 0.07372273 0.21607257 -0.13274276 0.040559106 -0.35155857 0.32881272 -0.17473085 0.26756975 -0.092802614 -0.31400737 0.016312933 -0.037056446 0.15717226 0.12119269 0.14792567 -0.106062956 0.12596515 -0.13035846 -0.03723379 -0.04010408 -0.21443526 -0.03396577 -0.12204632 0.30313385 -0.15504295 0.22383006 -0.19747168 -0.06404035 0.038153227 0.051889535 0.09177446 -0.15300508 0.19969259 0.20124538 -0.19929834 0.23930132 -0.026175609 0.11963272 0.02153605 0.24629618 -0.24936597 0.19025958 0.061961442 0.26878735 -0.09357853 -0.19663556 -0.25792015 -0.089185946 -0.20455025 0.056876175 0.052426413 -0.52337474 0.051644165 0.1941063 -0.058793098 -0.013351114 0.3185348 0.046926096 0.08942333 0.027416576 -0.14385994 -0.17871502 -0.10595498 0.0207482 0.1130223 0.22666055 0.2500539 0.13734409 -0.16860451 0.05734701 0.016417932 0.13798197 0.20111066 0.25224382 -0.081094444 -0.049809154 0.07841527 -0.08075413 0.016252775 0.077618726 0.10536376 0.17282426 -0.22616605 -0.23480977 0.07117809 -0.34949175 0.030331831 0.053523708 -0.043461483 0.06633822 0.08070293 0.29918316 -0.16186841 0.11720214 0.00027875547 0.13175349 -0.09224692 0.1180113 -0.25538102 0.15514953 0.007745307 0.04640311 0.011562792 -0.113528855 0.28114235 -0.08896376 -0.07332421 -0.058823574 -0.21473487 0.30405584 0.032487445 0.31674403
