40 50
pass -0.0591879 -0.07694515 -0.0023627363 -0.14943838 0.009149333 -0.10180613 -0.10582968 -0.021529311 0.22515465 -0.11685241 -0.19824189 0.02617403 -0.20625149 0.08883716 -0.18280421 -0.26386073 0.1092143 -0.030599363 0.110950604 -0.012346219 -0.16775711 -0.0042288937 -0.18967085 0.11237758 0.0851371 -0.120129384 -0.04909344 -0.031988062 0.13133554 0.12580596 -0.030906621 -0.064172685 -0.07873689 0.12779549 0.09583795 0.20857944 -0.036158275 -0.222258 -0.11025554 -0.048520632 -0.13367242 -0.1957832 -0.015037719 -0.19913444 -0.24985327 -0.10310023 -0.14075987 -0.052101273 0.059217043 -0.1288248
out -0.054865506 -0.107322186 0.01789208 -0.18869247 -0.10829727 -0.00044502912 -0.32207578 0.07356162 0.25823885 -0.019707186 -0.1412442 -0.04879445 -0.18607917 0.093068585 -0.07239928 -0.014250414 0.072751455 -0.05621933 -0.008427359 -0.00450025 -0.03477866 -0.02040911 -0.1242717 0.064351685 0.039907083 0.053163733 -0.1736045 -0.11951437 0.0944204 0.10281482 0.19846076 0.07206757 -0.11249239 0.22821155 0.037364874 0.2298862 -0.075224966 -0.32888106 -0.18827398 -0.07709847 -0.23614442 -0.13812563 -0.03777523 -0.22740625 -0.23508038 -0.2034847 -0.11661966 -0.08413164 -0.029239267 -0.24971065
ball_recovery -0.1086338 -0.08549308 0.014333633 -0.11847027 0.005022924 -0.119512774 -0.20609242 -0.04859085 0.17844352 -0.08800788 -0.09501168 0.08136354 -0.17106502 0.11194844 -0.09192244 -0.19842297 0.11990731 -0.09141939 0.19961064 -0.009450318 -0.17468055 -0.03971373 -0.1137249 0.08843819 -0.012313141 -0.10137735 -0.060866892 -0.09922694 0.10500909 0.16130571 -0.05642932 -0.026076313 -0.025971731 0.003029411 0.11455875 0.17611319 -0.107198134 -0.32790893 -0.13654491 -0.070853986 -0.17079975 -0.14847212 -0.114183724 -0.16171771 -0.3482204 -0.058721952 -0.16516896 -0.17060648 0.15492849 -0.1154666
aerial 0.009582465 -0.04157637 0.05888945 -0.13379191 -0.05550073 0.10950396 -0.21424368 0.08385335 0.33897874 -0.038129423 -0.17957953 0.047210146 -0.14358376 0.18074661 -0.11381088 0.13889194 -0.04566619 0.0690367 -0.08588097 0.057283588 -0.19407356 0.22958465 -0.24172702 0.19753367 -0.132737 0.053648245 -0.108526886 -0.016229857 0.1269364 0.10244795 0.023050806 0.0678511 -0.08875483 0.13671674 -0.13755848 0.22641554 0.0034938233 -0.2640287 0.018727038 -0.09200684 -0.16248366 -0.3289477 0.043609954 -0.123082444 -0.32248303 -0.02906457 -0.04056067 -0.40812898 0.16122514 -0.036353458
foul -0.012617229 -0.18268959 0.26139376 -0.17059854 0.015769126 0.026645819 0.014533242 -0.08390926 0.113249354 -0.026802609 -0.23260674 0.03825054 -0.026385395 0.080463015 -0.09403341 -0.08402463 -0.20010671 -0.08460743 0.025570663 -0.042972587 -0.22172956 0.1412699 -0.28169286 0.34313926 -0.101170056 -0.06850554 0.1356122 -0.16995464 0.18131611 0.17206874 -0.045493692 0.07277219 -0.30210498 0.18826495 -0.15099606 0.054162227 0.06669332 -0.060286414 -0.31855592 -0.09433312 -0.045781992 -0.005832455 -0.12250174 -0.23751292 -0.37342176 0.14115332 -0.06287885 -0.15441668 0.2164651 -0.20589904
clearance -0.12789476 -0.043197665 0.17254698 -0.049715795 -0.009433461 0.03757556 -0.17023231 0.047698487 0.2789071 -0.10387649 -0.18195625 0.0015290311 -0.057404675 0.206042 0.0077734794 -0.0037732958 0.12299525 0.05217892 0.098281026 0.13935448 -0.17937373 0.0023898596 -0.15781882 0.10266874 -0.059676394 -0.09722973 -0.022759965 -0.1171681 0.04486855 0.13785158 0.18620302 -0.03634056 -0.23398015 0.1645139 -0.05903469 0.030202158 0.002235708 -0.0021804774 0.0030956448 -0.13942389 -0.3316971 -0.24088602 0.0153960595 -0.12818173 -0.23530903 -0.015883917 -0.09217987 -0.277755 0.22405097 -0.18350224
ball_touch 0.024474509 -0.24315433 -0.051841192 -0.19299285 -0.026116312 -0.035387114 -0.18287694 -7.745432e-05 0.2103579 -0.17127456 -0.12994029 -0.012579162 -0.20211606 0.12498582 -0.17310664 -0.1442214 0.09344737 -0.05902819 0.073395096 -0.04618019 -0.20493072 -0.0019307608 -0.09874892 0.15076837 0.11144835 -0.1080624 -0.08473416 -0.08399557 0.1464434 0.11721202 0.054600205 -0.037898358 -0.08918212 0.16627643 -0.020215638 0.03132625 -0.018212762 -0.21048833 -0.014063512 -0.0956008 -0.13184363 -0.19910738 -0.019520558 -0.21082157 -0.31216642 -0.026564324 -0.13066182 -0.061882578 0.10181474 -0.17721035
tackle -0.18216538 -0.18530819 -0.15646088 -0.18208233 0.03270552 -0.16367912 -0.0024469846 -0.08389157 -0.0022064322 -0.38312054 0.083426885 0.15400572 -0.24440953 0.09496914 -0.2292699 -0.12186185 0.057468038 -0.06731912 0.03904654 0.019895872 -0.2584622 -0.18980934 -0.30773446 0.19257708 0.072635494 -0.30902463 -0.033534948 -0.22845349 0.081973 0.0679918 0.10360725 0.037826017 -0.054873455 0.11454734 0.059748847 0.006632073 -0.18387099 -0.22943318 -0.18757015 -0.14063267 -0.28998873 -0.0659354 -0.13849384 0.23437946 -0.26009244 -0.23981394 -0.13066173 -0.29602444 0.058004078 -0.35455874
take_on 0.029795714 -0.021098023 0.142726 -0.07852925 -0.07181589 0.087444425 0.080756746 -0.09705414 0.17676176 -0.17691168 -0.2288518 0.08808923 -0.09369953 0.38601586 0.1289917 -0.31794095 0.30994496 -0.090648405 0.14880767 0.026872361 -0.112574436 0.13413318 -0.24428023 0.15701666 0.20921414 0.07324155 0.05466339 -0.16065738 0.117778964 0.14730127 -0.115382314 -0.06425295 0.12541492 0.07894984 0.3530419 -0.11125247 -0.04732182 -0.14070883 -0.218965 -0.4217498 -0.11253437 -0.15240887 -0.1566747 -0.05263787 -0.34530884 -0.20663197 -0.2555005 -0.22144558 0.030027237 -0.14580552
interception -0.016359173 -0.12144938 0.06335513 -0.18595363 -0.059804533 0.010313727 -0.030506032 -0.02008139 0.2285717 -0.23619518 -0.13953155 0.03347903 -0.1942108 0.15314579 -0.24273394 -0.27802584 0.14306112 0.023449343 0.08419254 -0.07650207 -0.119022 -0.07476995 -0.106559485 0.08284588 0.09507843 -0.15233167 0.031913638 -0.048979312 0.11126935 0.117135055 -0.024859356 -0.10897258 -0.16764684 0.21350525 0.10425669 0.11501088 -0.005148964 -0.1639642 -0.14760792 -0.073393464 -0.109282285 -0.18798159 0.06714048 -0.13815632 -0.16648385 -0.14076445 -0.18309557 -0.06283358 0.07289377 -0.23760906
dispossessed -0.08998312 -0.046827644 0.077903226 -0.13955551 -0.22600551 -0.20452099 -0.20318463 -0.30686262 0.2938484 -0.03280194 0.11538955 0.06133624 -0.23125854 0.17485824 -0.13018067 -0.334294 0.23037325 -0.07885124 0.10619176 -0.0042233733 -0.010099614 -0.032271307 -0.13526048 -0.035419703 0.12105762 -0.12103127 -0.18828511 -0.20825799 0.28923824 0.2524368 0.16385767 -0.05919953 0.021246295 0.096214026 0.15908872 -0.07380792 0.04743482 -0.19527417 -0.2550861 0.0068241395 0.25030163 -0.21642959 -0.15301505 -0.24741076 -0.24024184 -0.036855213 -0.27832344 -0.29292193 0.21900152 -0.27444053
challenge -0.1958539 -0.079900615 0.08132805 -0.12875493 -0.081099786 0.016308079 0.14806962 -0.08983009 -0.19001287 -0.16606867 -0.24298593 -0.18281025 -0.46622244 0.08248475 -0.05727378 -0.030134063 0.26396117 0.027406845 0.03773436 0.1689545 -0.282885 -0.14011148 -0.08710676 0.048445564 -0.017845798 -0.22369151 -0.11321431 -0.3124017 0.047738295 0.16429625 -0.030155439 -0.13465518 0.079829834 -0.032631785 0.16111554 0.1708457 -0.01697535 -0.017172966 -0.30781722 -0.04026628 -0.2735422 -0.22341727 -0.17754775 -0.109687634 -0.6000733 -0.15070708 -0.050871782 -0.17766415 -0.12159263 -0.13716745
corner_awarded -0.1845899 -0.0035824438 0.28871638 -0.06507515 0.018811109 0.0637839 -0.038807664 -0.012223371 0.433377 0.14643008 -0.3349174 -0.21533415 0.115484394 0.26891923 0.037602793 0.015675515 0.16206715 0.1169106 0.214523 0.058258474 -0.0666808 0.00013644865 -0.40523452 0.2468601 0.066806406 -0.19694155 -0.09201401 -0.20694506 0.16962045 0.2110026 0.521448 -0.09433596 0.03477134 0.136597 -0.25732446 0.12854156 -0.22784348 0.35266644 0.1777335 0.041633215 -0.62188685 -0.07842624 -0.10845673 -0.16405302 -0.25020993 -0.060778406 -0.008416399 -0.4110555 0.014805787 -0.07366138
blocked_pass -0.030762896 -0.10086397 0.006891598 -0.13000481 0.032221243 -0.00071758253 -0.09969359 0.014258783 0.1547822 -0.19262594 -0.21024984 -0.025923146 -0.21385409 0.0852597 -0.1812916 -0.21047565 0.16520943 -0.00025287172 0.110857345 0.014482661 -0.14253318 -0.028385406 -0.025949236 0.088551916 0.11184589 -0.061301168 -0.08353555 -0.052790847 0.09068626 0.08610085 0.05044873 -0.046055872 -0.13027775 0.22885844 0.059241008 0.114969105 0.006065068 -0.25618574 -0.114712134 -0.07809236 -0.17023996 -0.16932099 -0.054129027 -0.20091331 -0.1653708 -0.13620979 -0.21122116 -0.10369289 0.07071921 -0.28078625
keeper_pick-up -0.21899612 0.1262346 0.08631398 -0.1529521 0.2740169 0.2410312 -0.008473816 -0.15096675 0.2922711 -0.10326756 -0.14843635 0.23126578 -0.12361598 0.02542298 -0.27553612 -0.2760624 0.22892769 -0.03532624 0.22643307 -0.19569768 -0.13489145 -0.03690751 0.11735141 0.091797076 -0.009903914 -0.0026329362 -0.128904 0.044821955 0.105130635 0.10605437 0.042937662 -0.0276687 0.05268063 0.11211891 -0.022233821 0.0878814 0.06563459 -0.18598789 -0.054963548 -0.03830775 -0.41188487 0.022676434 0.009578262 -0.17382832 -0.42054862 0.11028838 -0.23323722 -0.32266393 0.23998466 0.028059963
save 0.057543583 0.07034941 0.017707221 0.02252046 0.06952769 0.021702146 0.08439982 0.42682916 0.35557944 0.0064842165 -0.3764658 0.123053975 0.06365888 -0.030443225 -0.36971173 -0.34346053 0.20277378 0.43950775 -0.07343447 0.27700725 0.06757941 0.09041214 -0.46474704 0.20878871 0.054210655 -0.38151017 0.12075173 -0.31070584 0.06910238 0.050618827 0.39801666 -0.27521053 0.16144903 -0.090885825 -0.08953235 -0.1455338 0.227534 0.009699607 -0.196174 -0.13841736 -0.5184122 -0.15063357 -0.13792403 -0.40430698 -0.33849916 0.065184355 -0.11510078 -0.3230942 -0.0153212 -0.059409305
attempt_saved -0.23497985 -0.0666263 0.14241537 -0.23938338 0.58526874 0.2803568 0.085729696 0.019105874 0.27475822 0.014255372 -0.47855857 -0.04803413 0.09791021 0.007716333 -0.111917816 -0.0065910853 -0.07870748 -0.027318785 0.42137685 0.14938541 -0.22558011 -0.11883738 -0.36963922 0.20574696 0.32831252 0.053055357 -0.012025336 -0.14306973 -0.040968686 0.30042467 0.29947954 -0.0032897252 0.029864399 0.06901426 0.033155326 0.045119137 0.14076424 0.18485056 0.24856597 0.14781229 0.027454041 -0.19742578 -0.059481695 0.023595799 -0.6375766 -0.3642439 -0.32170355 -0.26723477 -0.022800634 -0.11951586
miss 0.05548035 -0.05469675 0.106402144 0.022511175 0.2044635 0.017119283 -0.15975438 0.04552651 0.22563136 -0.20815347 -0.24801502 0.12047084 -0.15412033 0.19369648 -0.07803098 0.095115446 0.0837869 -0.0900397 -0.072878376 0.04515665 0.08909266 0.014067713 -0.06754057 0.115761235 0.08242561 -0.06453013 -0.04243259 -0.30931985 0.28167674 0.022304866 0.13098688 0.17881171 -0.22399849 0.18764673 0.09331967 -0.013402843 0.06135357 -0.123136796 0.115557775 -0.13876738 -0.360816 -0.50083005 0.16367128 -0.036791787 -0.31213096 0.090730555 -0.08926789 -0.15921551 0.11869979 -0.2262004
player_off -0.19753611 -0.22284442 0.27701923 0.18958202 0.23399857 -0.014935967 0.36220786 -0.59118754 0.2329646 -0.24113202 -0.22571926 0.11833608 -0.095062755 0.33938122 0.22661458 -0.24044992 -0.09904692 0.3841069 -0.43267187 0.34578383 0.14861336 0.3154256 -0.32684335 0.26428762 0.25521705 -0.12113841 -0.45477423 -0.20060834 -0.018623382 -0.06546271 0.062336877 0.19625305 -0.41424185 0.28588814 -0.32593617 0.3208159 -0.1255313 -0.34326875 -0.02653379 -0.105691686 -0.22276418 -0.099675484 -0.0214678 -0.43032113 -0.4241818 -0.28589013 -0.21701764 0.3719422 0.22425704 0.020503275
player_on -0.07141679 0.26777923 0.0074874265 -0.077516094 0.05724931 0.12890291 0.12515442 -0.5110063 0.53506535 0.15710133 0.079566814 0.06386853 -0.20659202 0.24939288 -0.22936957 -0.05856132 -0.049533196 -0.07465186 -0.28547734 0.22380191 -0.05898689 0.25035435 -0.611547 0.016867666 0.21078031 -0.06260833 -0.264324 -0.064154446 0.13312808 0.006958202 0.13932618 0.24485357 -0.4567591 0.46261245 0.23820394 0.575608 0.25199172 0.046312544 -0.13286673 -0.29902995 -0.4854349 -0.11025256 -0.103260405 -0.10919099 -0.53734046 0.38307333 -0.19032532 0.5221862 -0.23205008 -0.093640275
offside_pass -0.28730896 0.01400316 0.17757224 -0.26656556 -0.2310139 -0.15724057 0.21556883 -0.1368715 0.05412866 -0.3734371 -0.3009997 -0.09143304 -0.117359735 0.34798586 -0.5737901 -0.4199359 -0.22972424 -0.30569938 0.10991166 -0.12532768 -0.60538554 0.11442373 -0.2900165 -0.3464208 -0.19170561 0.24304512 0.054366633 0.0971713 -0.0635127 -0.016838426 0.21469472 0.44474804 -0.2895602 -0.061655216 0.13819112 0.09918704 -0.07594079 -0.33945307 0.13741913 -0.12139774 -0.29117832 -0.43708834 0.1247248 -0.6026655 -0.1660621 -0.031058328 -0.0686276 -0.20705917 0.13882053 0.18146947
offside_provoked -0.07657829 0.29942882 -0.23557344 0.14520915 0.30621776 -0.22776513 -0.40445492 -0.090897545 0.093096524 -0.15947607 -0.3671619 0.1802002 -0.4590701 -0.116171464 0.17734274 -0.4871659 0.17483896 -0.19151422 -0.08495372 -0.110875376 -0.22724928 0.17726405 -0.17044929 -0.077596575 -0.07076531 -0.12412819 0.29024744 0.22809833 0.25614944 -0.1270469 -0.09326112 -0.16094722 -0.14852172 0.82524943 -0.19317187 0.33277285 0.115147755 -0.046180796 0.028241836 -0.23086469 -0.008206582 -0.17421205 -0.35750344 -0.31756955 -0.5565396 -0.24191158 0.21942912 -0.33393118 0.2610442 0.0048292815
card 0.076844044 0.1925522 0.43798274 0.09970328 0.16900964 0.32198262 -0.018049743 -0.16127643 -0.04054667 -0.1528124 -0.23419234 0.0022881783 0.055847913 0.13953061 -0.11105129 -0.14157371 -0.1092715 0.03831456 -0.065923095 -0.08061554 -0.17654759 0.22279823 -0.5750874 0.2593214 -0.117303684 -0.1543424 0.15993173 -0.3001686 0.28602827 0.21444756 -0.068693504 0.055584002 -0.4619808 0.17799912 -0.11278899 0.15721822 0.07641394 -0.089135125 -0.2485329 0.1938204 -0.012167444 0.20725201 -0.025123915 -0.3102026 -0.5703677 0.31361425 -0.2154191 -0.066480525 0.14660592 -0.08539161
goal 0.33012694 -0.14728817 0.18356933 0.23731802 0.34256732 -0.115459874 0.11868089 -0.2485104 0.16458562 -0.011394201 -0.37388736 0.020968953 0.20375279 0.12795661 -0.20408793 -0.1334741 -0.20915066 0.033750918 0.038145583 -0.16840693 0.26480755 0.032850727 -0.19623898 -0.2084297 -0.236634 -0.031793773 0.2995141 -0.48957247 0.051757 0.20073888 0.0995106 0.073091865 -0.26420796 -0.01239841 0.10645558 0.21929623 0.14977553 0.014410065 -0.4592389 -0.1061167 -0.41395688 -0.20450477 -0.00012019763 -0.012323193 -0.7174429 -0.36281002 -0.2484265 0.058166064 0.23421656 -0.20073955
claim -0.0722095 -0.1368871 0.114244014 -0.020347834 0.09702701 -0.08718797 0.0055240234 -0.03545869 0.33150893 -0.04325947 -0.15836756 0.08608391 0.014631621 0.18857402 -0.008950751 -0.063264824 0.03409872 0.023612745 0.17252794 0.15298934 -0.19357336 -0.056061815 -0.12780426 0.12664941 -0.028682165 -0.28192854 0.16101198 -0.12602954 -0.010982799 0.09805292 0.034720574 -0.06369249 -0.3978908 0.22318542 0.050197985 0.0029628433 0.060658325 0.1503072 0.11221516 -0.286399 -0.37920448 -0.27779377 -0.063186206 -0.12577873 -0.36307484 0.039466184 -0.23550098 -0.0139671825 0.29252055 -0.07160667
formation_change -0.2262081 -0.026220744 0.20034993 0.021802627 0.21670765 0.28969955 0.2344768 -0.5182192 0.48477632 -0.18168987 -0.19735774 0.21098535 -0.2585784 0.3724579 -0.08311313 -0.26578808 -0.18010841 0.14165089 -0.420661 0.16806178 0.17281082 0.2479989 -0.39097854 -0.046002623 0.029638339 0.17233725 -0.3242652 -0.1932866 -0.08435577 0.0954795 0.1749657 0.20087874 -0.20974272 0.15175024 -0.42380285 0.5783667 0.08764993 -0.1271181 -0.23586889 -0.17923886 -0.29372188 -0.08813392 -0.31330058 -0.16785258 -0.4380639 0.18964615 0.16547151 0.43065566 0.081601255 -0.3152582
keeper_sweeper -0.015253391 -0.14626089 0.00096170284 -0.3074352 -0.15418227 0.060460366 0.047970194 0.3128963 0.33428514 -0.27316508 -0.43359584 0.32545957 -0.29610372 0.11702196 -0.24201635 -0.44046098 0.19770584 -0.09410781 -0.041684564 -0.3265559 -0.089702085 -0.16215056 -0.021025807 0.36292526 -0.05820826 0.06734907 -0.035264622 -0.19103134 0.24750707 0.34265012 -0.2911312 -0.1706155 0.039792836 0.014620129 -0.21838666 0.28164378 -0.08584747 -0.26385215 0.23916282 -0.12910487 -0.110780716 -0.20003143 -0.14817801 -0.0665447 -0.16730328 0.2181151 -0.34381405 0.07156349 -0.14889857 -0.19662122
referee_drop_ball 0.3356817 -0.5356851 -0.43155494 -0.27172807 0.013801728 0.22314803 -0.059316695 -0.44217318 0.23249467 -0.16690041 0.34396783 -0.25487354 -0.02752063 0.36362663 -0.20612092 -0.020212572 0.014346341 0.09552651 0.09478643 -0.05929861 -0.45879853 0.3308314 -0.046829514 0.15348929 0.44919136 -0.19462624 -0.18742894 0.3187309 0.04696381 0.0256723 -0.22204871 -0.3386939 0.108112335 0.06343275 -0.43994 0.010758976 -0.13099293 -0.1566292 0.6195791 -0.3282276 -0.33512965 -0.29024857 -0.33371317 -0.5012448 -0.9106346 0.5117967 -0.31915495 -0.009698567 0.24536102 -0.2403116
punch -0.036722183 0.012864438 0.19311137 0.038782973 0.05643157 0.1747261 -0.14739546 0.048968635 0.20951301 -0.080634005 -0.028017838 -0.14045583 0.1502276 0.23430285 0.055198602 0.14818853 0.18041445 0.23582135 0.10393017 0.22510125 -0.20128116 0.053447492 -0.29590738 0.14114481 0.1567949 -0.30439463 -0.016431857 -0.07694444 0.06816122 0.08477654 0.27889004 -0.17585859 -0.26856086 0.09821989 -0.13527203 -0.13320021 -0.011022856 0.15906164 0.31512415 -0.064220905 -0.46404463 -0.2719771 0.19601578 -0.28143695 -0.57940936 0.06712671 -0.18132564 -0.448183 0.26600048 0.03422808
error -0.25664628 0.29789752 0.2778668 -0.17013079 0.049908124 0.5562867 0.34744865 0.107398935 0.23435608 0.11132059 -0.3424221 -0.14003447 -0.020173207 -0.011583914 -0.17151174 -0.13511977 0.22304517 0.3836259 0.14487469 0.11432699 -0.09599536 0.058680944 -0.3599153 0.49680987 0.223636 0.032921746 -0.43875003 0.16051796 -0.021277407 0.17122027 0.04660839 -0.06380914 0.27796307 0.040605243 -0.20392054 0.39648086 -0.040976103 -0.08548542 -0.5184713 0.17976898 -0.47795627 0.18992393 0.052427653 -0.12853964 -0.23908073 -0.09879293 -0.26987508 -0.4260044 -0.18287487 -0.4959541
shield_ball_opp -0.01351523 -0.04758511 0.13647431 -0.047053162 0.15626472 0.03719751 -0.12307388 -0.038100805 0.032901525 -0.27809677 -0.20675582 0.033932094 -0.3494946 0.07878153 -0.1331358 0.04096102 0.12792438 -0.10485846 -0.010647143 0.03285271 0.012707089 -0.07807217 0.120939985 0.082135126 0.07684035 -0.04308155 -0.12532955 -0.22383216 0.25841123 0.017138455 0.02707427 0.18130457 -0.33385596 0.33131477 0.19836502 0.08971521 0.09871943 -0.23173048 -0.1712382 0.05696607 -0.17335054 -0.41593623 0.18809627 -0.072576836 -0.16002972 -0.021350995 -0.15056285 -0.14006883 0.13528715 -0.36640534
smother -0.24124168 -0.31820932 -0.27941358 -0.3607843 0.059844434 -0.09644941 0.024617389 0.31381622 0.24301715 -0.23138876 -0.116980806 0.6798858 -0.23915549 -0.18547076 -0.038994964 -0.42603493 0.10696486 0.17262916 -0.055414803 0.009332065 -0.17126179 -0.25603178 0.008786552 0.0459893 -0.4188651 0.2051338 -0.07998724 -0.05272387 -0.26701656 0.46013877 -0.32069242 -0.4532914 -0.30230173 -0.051562596 0.13477306 0.090450056 0.34114477 -0.19497049 0.060787518 -0.13760678 -0.25036973 -0.2593593 0.13197918 -0.14918713 -0.7938841 0.03763523 -0.62244534 -0.16663483 0.1085023 0.21181491
post 0.08604772 0.12655364 0.2405135 0.03521227 0.08392598 0.07816815 0.08306105 0.11689995 0.2328089 -0.013951693 -0.3456419 -0.061994545 0.034057204 0.1680893 -0.09551362 -0.018711617 0.04430433 0.10848727 0.03009051 0.11841943 0.039570477 0.12019837 -0.37642503 0.18057787 0.12794754 -0.07257088 0.0786338 -0.1318799 0.19508858 0.062106293 0.08161566 0.06531854 -0.12750497 0.1423875 0.1268031 0.08380596 0.09098539 0.14231715 -0.1530972 -0.051107503 -0.26336688 -0.39731196 0.18453595 -0.10483811 -0.3468281 -0.123092145 -0.15371254 -0.35836712 0.009132428 -0.26601034
penalty_faced -0.11082575 0.5245601 0.6254794 0.23091173 0.3876464 0.06039101 1.018783 -0.2906593 -0.3227029 0.11093419 -0.429199 -0.017586049 0.27257985 -0.17337 -0.32647488 -0.37982556 -0.43471277 0.102905355 0.13750099 0.05066994 -0.036226593 0.14784421 -0.61661154 0.6757989 0.28471065 -0.5261214 0.26885656 -0.019639298 0.38687414 -0.119386114 -0.51518583 0.47781178 -0.2331986 0.09631126 -0.14538085 0.29009783 -0.025403421 0.10376309 -0.61763537 0.2693963 -0.04158081 -0.16000147 0.10728623 -0.45015454 -0.69588256 0.1494721 -0.5518569 -0.3679292 0.20528445 -0.64875174
foul_throw-in 0.007011079 -0.24100806 0.30426133 -0.14587052 0.24912278 0.7232257 -0.5787705 0.13820842 0.3737548 -0.342455 -0.79341 -0.26404542 -0.7071229 0.4471911 -0.18203948 0.22882408 0.578421 0.029852703 0.10360788 0.34145966 -0.25098658 0.1759735 0.2208952 0.18373977 -0.0032323257 0.07361173 -0.24069324 -0.64686096 0.091474384 0.22571786 0.34756476 -0.036489725 0.13750008 0.17940961 0.03758439 -0.051448423 0.18642633 -0.5865496 -0.21454267 -0.31621164 0.066791736 0.040927757 -0.58148617 0.12520285 0.2762479 -0.07792089 0.046162006 0.38581273 -0.0008086755 -0.39867693
contentious_referee_decision 0.0014845256 0.36064222 0.27925476 0.19584051 0.39025924 -0.08326922 0.7064099 -0.26206774 -0.14107482 0.08075096 -0.45577806 -0.10448352 0.27808496 -0.09468527 -0.30910215 -0.4432087 -0.41183275 0.038876645 0.062973134 -0.10208353 -0.1339428 0.261066 -0.63618714 0.31948963 0.19058649 -0.33308586 0.28194866 0.1879099 0.27898368 -0.12970583 -0.336163 0.25547692 -0.14214458 0.10050847 -0.32107455 0.378617 -0.060692467 0.18784192 -0.12765843 0.16195107 -0.2359933 -0.26242667 0.033229064 -0.6314652 -0.8220025 0.14195547 -0.28920287 -0.2746202 0.14689879 -0.27312154
good_skill -0.21527357 0.1685626 0.21924083 -0.065514915 -0.046260063 0.21701847 0.22908966 -0.05665126 -0.058004193 -0.29471612 -0.3855001 0.018030839 -0.50763696 0.37405273 0.11153628 -0.18198654 0.42855814 -0.08721109 0.01587215 0.27262688 -0.17787133 0.065216 -0.17114447 -0.0030800449 0.12917331 0.09013905 -0.055727806 -0.23295528 0.0506499 0.08144976 -0.1567709 -0.016421977 0.24701014 -0.06335823 0.448053 -0.011314474 0.047687843 -0.041106623 -0.34335744 -0.3196448 -0.15257697 -0.3799299 -0.14579117 -0.031247223 -0.45736048 -0.17979644 0.0032351704 -0.31096327 -0.15017655 -0.12824978
cross_not_claimed -0.0695674 0.31261662 0.347365 0.11417214 0.122667335 0.16319983 0.056530677 0.041278455 0.40687683 0.19376424 -0.17551106 -0.022202343 0.12825163 0.1716397 0.040111154 0.27616107 -0.15283936 0.26593938 -0.20099042 0.37046608 0.152389 0.32273751 -0.5938134 0.40651283 0.25495332 -0.20104353 -0.1421311 -0.012822972 0.24424879 -0.122922026 0.24976128 0.28404596 -0.21121997 0.29711106 -0.18435186 0.2414832 0.0341458 0.1324359 -0.009092952 0.018586138 -0.34329513 -0.43417475 0.196045 -0.27987945 -0.43156648 -0.002219986 -0.032898992 -0.48096377 0.065227225 -0.15415092
chance_missed -0.16480242 0.008089896 0.05047258 -0.124408424 -0.017373852 0.06702636 0.026096132 -0.054552987 0.28607026 -0.10962118 -0.13026413 0.046839382 -0.08524369 0.24815354 0.018832294 -0.17616789 0.14501391 0.10173874 -0.01125332 0.12234084 -0.21968395 0.095690556 -0.35521966 0.12687108 0.10459279 -0.09399106 -0.06601946 0.005422835 0.05234168 0.112984754 0.11212764 -0.15477227 -0.08301321 0.12687556 -0.13989592 0.06953333 -0.012631646 0.09669726 0.27940267 -0.16175996 -0.2939662 -0.25570753 -0.06281328 -0.2733946 -0.5024968 0.10083071 -0.09972093 -0.29775378 0.043185197 0.08588405
player_retired -0.13072622 0.123090945 0.13399754 0.030264888 0.13840032 0.05445177 0.17175524 -0.15682241 0.21022433 -0.031610534 -0.15783796 0.07996062 -0.11650823 0.15584685 -0.004208141 -0.051923316 0.016735433 0.14619024 -0.16993454 0.2966119 0.08636304 0.15125152 -0.35401982 0.1436406 0.24065137 -0.110878214 -0.15668531 -0.123278975 0.09257841 -0.05439019 0.13211256 0.13946436 -0.08409439 0.16432625 0.03401348 0.1504162 0.07259285 -0.042984486 -0.14962508 -0.12974758 -0.28144643 -0.3183741 0.023306148 -0.1962689 -0.4792838 -0.122298576 -0.08738707 -0.19603541 0.016089141 -0.15842438
